{"learner":{"attributes":{"scikit_learn":"{\"_estimator_type\": \"classifier\"}"},"feature_names":["ocr_score","biometric_score","behavioral_score"],"feature_types":["int","float","float"],"gradient_booster":{"model":{"cats":{"enc":[],"feature_segments":[],"sorted_idx":[]},"gbtree_model_param":{"num_parallel_tree":"1","num_trees":"100"},"iteration_indptr":[0,1,2,3,4,5,6,7,8,9,10,11,12,13,14,15,16,17,18,19,20,21,22,23,24,25,26,27,28,29,30,31,32,33,34,35,36,37,38,39,40,41,42,43,44,45,46,47,48,49,50,51,52,53,54,55,56,57,58,59,60,61,62,63,64,65,66,67,68,69,70,71,72,73,74,75,76,77,78,79,80,81,82,83,84,85,86,87,88,89,90,91,92,93,94,95,96,97,98,99,100],"tree_info":[0,0,0,0,0,0,0,0,0,0,0,0,0,0,0,0,0,0,0,0,0,0,0,0,0,0,0,0,0,0,0,0,0,0,0,0,0,0,0,0,0,0,0,0,0,0,0,0,0,0,0,0,0,0,0,0,0,0,0,0,0,0,0,0,0,0,0,0,0,0,0,0,0,0,0,0,0,0,0,0,0,0,0,0,0,0,0,0,0,0,0,0,0,0,0,0,0,0,0,0],"trees":[{"base_weights":[2.5625386E-9,4.0503964E0,-3.6041522E-1,1.4833158E0,4.946953E0,1.1958355E0,-8.466701E-1,1.5315251E0,5.9700197E-1,-3.3571653E-2,-2.9152206E-1],"categories":[],"categories_nodes":[],"categories_segments":[],"categories_sizes":[],"default_left":[0,0,0,0,0,0,0,0,0,0,0],"id":0,"left_children":[1,3,-1,5,7,-1,9,-1,-1,-1,-1],"loss_changes":[7.122727E2,6.972748E1,0E0,6.2247498E1,1.2445679E0,0E0,4.475212E-1,0E0,0E0,0E0,0E0],"parents":[2147483647,0,0,1,1,3,3,4,4,6,6],"right_children":[2,4,-1,6,8,-1,10,-1,-1,-1,-1],"split_conditions":[1E0,2.9805222E-1,-3.6041522E-1,4.7463086E-1,9.309487E-1,1.1958355E0,5.8660847E-1,1.5315251E0,5.9700197E-1,-3.3571653E-2,-2.9152206E-1],"split_indices":[0,2,0,1,1,0,1,0,0,0,0],"split_type":[0,0,0,0,0,0,0,0,0,0,0],"sum_hessian":[1.44375E2,3.2484375E1,1.11890625E2,9.095625E0,2.338875E1,4.0425E0,5.053125E0,2.1511875E1,1.8768749E0,1.010625E0,4.0425E0],"tree_param":{"num_deleted":"0","num_feature":"3","num_nodes":"11","size_leaf_vector":"1"}},{"base_weights":[-1.3561425E-1,1.560184E0,-3.4046584E-1,8.113386E-1,5.7496405E-1,1.7360036E0,-9.5690197E-1,6.1029506E-1,4.604315E-1,1.6221702E-2,-3.5625088E-1,-2.5100115E-1,4.5640114E-1],"categories":[],"categories_nodes":[],"categories_segments":[],"categories_sizes":[],"default_left":[0,0,0,0,0,0,0,0,0,0,0,0,0],"id":1,"left_children":[1,3,-1,5,-1,7,9,-1,11,-1,-1,-1,-1],"loss_changes":[2.3720993E2,1.2304749E1,0E0,3.1877182E1,0E0,3.8160744E0,1.6938672E0,0E0,6.30927E0,0E0,0E0,0E0,0E0],"parents":[2147483647,0,0,1,1,3,3,5,5,6,6,8,8],"right_children":[2,4,-1,6,-1,8,10,-1,12,-1,-1,-1,-1],"split_conditions":[1E0,4.1879332E-1,-3.4046584E-1,5.4001194E-1,5.7496405E-1,4.16154E-1,6.6137064E-1,6.1029506E-1,1.3171503E-1,1.6221702E-2,-3.5625088E-1,-2.5100115E-1,4.5640114E-1],"split_indices":[0,2,0,1,0,1,1,0,2,0,0,0,0],"split_type":[0,0,0,0,0,0,0,0,0,0,0,0,0],"sum_hessian":[1.3793802E2,5.0936214E1,8.700181E1,1.748039E1,3.3455826E1,1.1490107E1,5.990284E0,8.830195E0,2.6599102E0,1.2547716E0,4.7355123E0,1.2918316E0,1.3680787E0],"tree_param":{"num_deleted":"0","num_feature":"3","num_nodes":"13","size_leaf_vector":"1"}},{"base_weights":[-1.3754937E-1,1.180944E0,-3.2668045E-1,1.4490672E0,6.2049294E-1,4.0034226E-1,4.65921E-1,-6.6399723E-1,4.7606573E-1,3.529696E-1,-2.3217507E-1,1.8425918E-1,-3.359168E-1,-2.2871213E-1,3.0406296E-1],"categories":[],"categories_nodes":[],"categories_segments":[],"categories_sizes":[],"default_left":[0,0,0,0,0,0,0,0,0,0,0,0,0,0,0],"id":2,"left_children":[1,3,-1,5,7,9,-1,11,-1,-1,-1,13,-1,-1,-1],"loss_changes":[1.4651366E2,6.4648666E0,0E0,2.9119415E0,2.2909302E1,4.8029623E0,0E0,3.4010522E0,0E0,0E0,0E0,3.71416E0,0E0,0E0,0E0],"parents":[2147483647,0,0,1,1,3,3,4,4,5,5,7,7,11,11],"right_children":[2,4,-1,6,8,10,-1,12,-1,-1,-1,14,-1,-1,-1],"split_conditions":[1E0,6.1598545E-1,-3.2668045E-1,1.3171503E-1,6.0852724E-1,4.0193093E-1,4.65921E-1,7.0768094E-1,4.7606573E-1,3.529696E-1,-2.3217507E-1,3.4316736E-1,-3.359168E-1,-2.2871213E-1,3.0406296E-1],"split_indices":[0,1,0,2,2,1,0,1,0,0,0,2,0,0,0],"split_type":[0,0,0,0,0,0,0,0,0,0,0,0,0,0,0],"sum_hessian":[1.1477506E2,4.8005104E1,6.676996E1,3.139838E1,1.6606724E1,3.2703826E0,2.8127996E1,7.264266E0,9.342457E0,1.9677035E0,1.3026791E0,2.7469525E0,4.5173135E0,1.3203962E0,1.4265563E0],"tree_param":{"num_deleted":"0","num_feature":"3","num_nodes":"15","size_leaf_vector":"1"}},{"base_weights":[-1.3200673E-1,9.9447584E-1,-3.165458E-1,1.2502053E0,5.390401E-1,2.6405153E-1,3.9990044E-1,-3.7704706E-1,3.9869583E-1,2.4688622E-1,-1.23691924E-1,3.1196752E-1,-9.677504E-1,-2.2825481E-1,3.059699E-1,-9.360136E-2,-3.2231373E-1],"categories":[],"categories_nodes":[],"categories_segments":[],"categories_sizes":[],"default_left":[0,0,0,0,0,0,0,0,0,0,0,0,0,0,0,0,0],"id":3,"left_children":[1,3,-1,5,7,9,-1,11,-1,-1,-1,13,15,-1,-1,-1,-1],"loss_changes":[9.81873E1,4.2860565E0,0E0,1.8129387E0,1.28552E1,1.5870454E0,0E0,3.8362103E0,0E0,0E0,0E0,4.3945627E0,8.7451935E-3,0E0,0E0,0E0,0E0],"parents":[2147483647,0,0,1,1,3,3,4,4,5,5,7,7,11,11,12,12],"right_children":[2,4,-1,6,8,10,-1,12,-1,-1,-1,14,16,-1,-1,-1,-1],"split_conditions":[1E0,5.5085737E-1,-3.165458E-1,1.054737E-1,6.0852724E-1,2.2381762E-1,3.9990044E-1,7.0768094E-1,3.9869583E-1,2.4688622E-1,-1.23691924E-1,3.4316736E-1,7.6922315E-1,-2.2825481E-1,3.059699E-1,-9.360136E-2,-3.2231373E-1],"split_indices":[0,1,0,2,2,1,0,1,0,0,0,2,1,0,0,0,0],"split_type":[0,0,0,0,0,0,0,0,0,0,0,0,0,0,0,0,0],"sum_hessian":[9.241019E1,4.158644E1,5.0823746E1,2.5514723E1,1.6071718E1,2.3007312E0,2.3213991E1,7.6837244E0,8.387994E0,1.1410724E0,1.1596587E0,3.7645307E0,3.9191935E0,1.4668629E0,2.2976677E0,1.0972712E0,2.8219223E0],"tree_param":{"num_deleted":"0","num_feature":"3","num_nodes":"17","size_leaf_vector":"1"}},{"base_weights":[-1.2545879E-1,8.719757E-1,-3.0857813E-1,4.1690585E-1,1.0960643E0,3.436301E-1,-4.0961993E-1,3.5556677E-1,6.652021E-1,1.2676747E-1,-2.706087E-1,-2.5030786E-1,3.405046E-1,-2.0978636E-1,2.1509844E-1],"categories":[],"categories_nodes":[],"categories_segments":[],"categories_sizes":[],"default_left":[0,0,0,0,0,0,0,0,0,0,0,0,0,0,0],"id":4,"left_children":[1,3,-1,5,7,-1,9,-1,11,13,-1,-1,-1,-1,-1],"loss_changes":[6.789817E1,3.202467E0,0E0,8.57058E0,1.116848E-1,0E0,1.9736973E0,0E0,5.38295E0,2.5716572E0,0E0,0E0,0E0,0E0,0E0],"parents":[2147483647,0,0,1,1,3,3,4,4,6,6,8,8,9,9],"right_children":[2,4,-1,6,8,-1,10,-1,12,14,-1,-1,-1,-1,-1],"split_conditions":[1E0,4.1879332E-1,-3.0857813E-1,4.16154E-1,8.3169705E-1,3.436301E-1,6.6137064E-1,3.5556677E-1,6.0852724E-1,1.3171503E-1,-2.706087E-1,-2.5030786E-1,3.405046E-1,-2.0978636E-1,2.1509844E-1],"split_indices":[0,2,0,1,1,0,1,0,2,2,0,0,0,0,0],"split_type":[0,0,0,0,0,0,0,0,0,0,0,0,0,0,0],"sum_hessian":[7.337824E1,3.488513E1,3.849311E1,1.2454169E1,2.2430962E1,6.414431E0,6.039738E0,1.7134508E1,5.296455E0,3.2461846E0,2.7935538E0,1.0784124E0,4.2180424E0,1.2758231E0,1.9703614E0],"tree_param":{"num_deleted":"0","num_feature":"3","num_nodes":"15","size_leaf_vector":"1"}},{"base_weights":[-1.1848796E-1,7.8337735E-1,-3.0180877E-1,1.0224811E0,3.7703618E-1,2.358314E-1,3.3678836E-1,-3.5622784E-1,3.1858766E-1,2.2091444E-1,-1.2977429E-1,2.3307562E-1,-7.436112E-1,-1.13623045E-1,2.1083954E-1,-7.335725E-2,-2.6238424E-1],"categories":[],"categories_nodes":[],"categories_segments":[],"categories_sizes":[],"default_left":[0,0,0,0,0,0,0,0,0,0,0,0,0,0,0,0,0],"id":5,"left_children":[1,3,-1,5,7,9,-1,11,-1,-1,-1,13,15,-1,-1,-1,-1],"loss_changes":[4.7859478E1,2.5030022E0,0E0,1.1637402E0,6.7051983E0,1.4272094E0,0E0,1.7331815E0,0E0,0E0,0E0,1.2638402E0,7.129359E-2,0E0,0E0,0E0,0E0],"parents":[2147483647,0,0,1,1,3,3,4,4,5,5,7,7,11,11,12,12],"right_children":[2,4,-1,6,8,10,-1,12,-1,-1,-1,14,16,-1,-1,-1,-1],"split_conditions":[1E0,5.5085737E-1,-3.0180877E-1,1.3171503E-1,6.0852724E-1,2.859068E-1,3.3678836E-1,6.949511E-1,3.1858766E-1,2.2091444E-1,-1.2977429E-1,3.842067E-1,7.6922315E-1,-1.13623045E-1,2.1083954E-1,-7.335725E-2,-2.6238424E-1],"split_indices":[0,1,0,2,2,1,0,1,0,0,0,2,1,0,0,0,0],"split_type":[0,0,0,0,0,0,0,0,0,0,0,0,0,0,0,0,0],"sum_hessian":[5.780668E1,2.8730183E1,2.9076498E1,1.713255E1,1.1597633E1,2.313663E0,1.4818886E1,5.8329253E0,5.7647085E0,1.2648071E0,1.048856E0,2.4715047E0,3.3614206E0,1.1575154E0,1.3139893E0,1.2948667E0,2.0665538E0],"tree_param":{"num_deleted":"0","num_feature":"3","num_nodes":"17","size_leaf_vector":"1"}},{"base_weights":[-1.0907472E-1,7.1017575E-1,-2.9554605E-1,2.8886274E-1,9.3681973E-1,2.872906E-1,-3.7892246E-1,3.124814E-1,4.8599213E-1,5.23389E-2,-2.3420474E-1,-1.4490966E-1,2.6917154E-1,-1.7899221E-1,1.5601254E-1],"categories":[],"categories_nodes":[],"categories_segments":[],"categories_sizes":[],"default_left":[0,0,0,0,0,0,0,0,0,0,0,0,0,0,0],"id":6,"left_children":[1,3,-1,5,7,-1,9,-1,11,13,-1,-1,-1,-1,-1],"loss_changes":[3.415728E1,2.0851173E0,0E0,4.862366E0,2.3051167E-1,0E0,1.0384698E0,0E0,2.3525584E0,1.4376154E0,0E0,0E0,0E0,0E0,0E0],"parents":[2147483647,0,0,1,1,3,3,4,4,6,6,8,8,9,9],"right_children":[2,4,-1,6,8,-1,10,-1,12,14,-1,-1,-1,-1,-1],"split_conditions":[1E0,4.1879332E-1,-2.9554605E-1,4.16154E-1,8.3169705E-1,2.872906E-1,6.6137064E-1,3.124814E-1,6.5229166E-1,1.3171503E-1,-2.3420474E-1,-1.4490966E-1,2.6917154E-1,-1.7899221E-1,1.5601254E-1],"split_indices":[0,2,0,1,1,0,1,0,2,2,0,0,0,0,0],"split_type":[0,0,0,0,0,0,0,0,0,0,0,0,0,0,0],"sum_hessian":[4.561606E1,2.3670424E1,2.1945633E1,9.075086E0,1.4595338E1,4.3173275E0,4.757758E0,1.0779462E1,3.8158755E0,2.7140934E0,2.0436645E0,1.0849167E0,2.7309587E0,1.0212853E0,1.6928082E0],"tree_param":{"num_deleted":"0","num_feature":"3","num_nodes":"15","size_leaf_vector":"1"}},{"base_weights":[-9.994018E-2,6.469399E-1,-2.8925744E-1,2.9564694E-1,3.5218832E-1,-1.6117083E-1,2.8234774E-1,2.1451344E-1,-6.2549067E-1,-1.3572234E-1,1.9135536E-1,-5.6829095E-2,-2.2114055E-1],"categories":[],"categories_nodes":[],"categories_segments":[],"categories_sizes":[],"default_left":[0,0,0,0,0,0,0,0,0,0,0,0,0],"id":7,"left_children":[1,3,-1,-1,5,7,-1,9,11,-1,-1,-1,-1],"loss_changes":[2.4538996E1,1.6958637E0,0E0,0E0,3.9312425E0,1.4481688E0,0E0,1.6743758E0,3.6809683E-2,0E0,0E0,0E0,0E0],"parents":[2147483647,0,0,1,1,4,4,5,5,7,7,8,8],"right_children":[2,4,-1,-1,6,8,-1,10,12,-1,-1,-1,-1],"split_conditions":[1E0,4.2549333E-1,-2.8925744E-1,2.9564694E-1,6.0852724E-1,6.949511E-1,2.8234774E-1,2.3238432E-1,7.6922315E-1,-1.3572234E-1,1.9135536E-1,-5.6829095E-2,-2.2114055E-1],"split_indices":[0,1,0,0,2,1,0,2,1,0,0,0,0],"split_type":[0,0,0,0,0,0,0,0,0,0,0,0,0],"sum_hessian":[3.6049603E1,1.9472792E1,1.657681E1,7.9723444E0,1.1500448E1,6.532734E0,4.9677143E0,3.9084146E0,2.624319E0,1.4909388E0,2.4174757E0,1.0846454E0,1.5396738E0],"tree_param":{"num_deleted":"0","num_feature":"3","num_nodes":"13","size_leaf_vector":"1"}},{"base_weights":[-9.193829E-2,5.829404E-1,-2.8251234E-1,1.7576529E-1,8.2694596E-1,6.3636875E-1,-1.7000711E-1,2.8382134E-1,3.615756E-1,1.2900127E-2,2.4246833E-1,-8.5694715E-2,2.1417996E-1],"categories":[],"categories_nodes":[],"categories_segments":[],"categories_sizes":[],"default_left":[0,0,0,0,0,0,0,0,0,0,0,0,0],"id":8,"left_children":[1,3,-1,5,7,9,-1,-1,11,-1,-1,-1,-1],"loss_changes":[1.7609653E1,1.563354E0,0E0,2.9987545E0,2.3912668E-1,4.9876857E-1,0E0,0E0,1.0603547E0,0E0,0E0,0E0,0E0],"parents":[2147483647,0,0,1,1,3,3,4,4,5,5,8,8],"right_children":[2,4,-1,6,8,10,-1,-1,12,-1,-1,-1,-1],"split_conditions":[1E0,4.1879332E-1,-2.8251234E-1,5.4001194E-1,8.3169705E-1,1.054737E-1,-1.7000711E-1,2.8382134E-1,6.546507E-1,1.2900127E-2,2.4246833E-1,-8.5694715E-2,2.1417996E-1],"split_indices":[0,2,0,1,1,2,0,0,2,0,0,0,0],"split_type":[0,0,0,0,0,0,0,0,0,0,0,0,0],"sum_hessian":[2.874883E1,1.61983E1,1.2550531E1,6.714336E0,9.483963E0,4.2318645E0,2.4824715E0,6.7286305E0,2.7553325E0,1.2311939E0,3.000671E0,1.0380044E0,1.717328E0],"tree_param":{"num_deleted":"0","num_feature":"3","num_nodes":"13","size_leaf_vector":"1"}},{"base_weights":[-7.661784E-2,5.298289E-1,-2.7496085E-1,2.6763844E-1,2.4764489E-1,-1.8321021E-1,2.4943303E-1,1.6088134E-1,-5.193143E-1,-1.1430415E-1,1.9994219E-1,-1.9091965E-1,-4.491601E-2],"categories":[],"categories_nodes":[],"categories_segments":[],"categories_sizes":[],"default_left":[0,0,0,0,0,0,0,0,0,0,0,0,0],"id":9,"left_children":[1,3,-1,-1,5,7,-1,9,11,-1,-1,-1,-1],"loss_changes":[1.2843478E1,1.2842197E0,0E0,0E0,2.582271E0,8.211441E-1,0E0,1.3265414E0,5.456972E-2,0E0,0E0,0E0,0E0],"parents":[2147483647,0,0,1,1,4,4,5,5,7,7,8,8],"right_children":[2,4,-1,-1,6,8,-1,10,12,-1,-1,-1,-1],"split_conditions":[1E0,4.2549333E-1,-2.7496085E-1,2.6763844E-1,6.0852724E-1,6.801408E-1,2.4943303E-1,2.7576756E-1,4.1879332E-1,-1.1430415E-1,1.9994219E-1,-1.9091965E-1,-4.491601E-2],"split_indices":[0,1,0,0,2,1,0,2,2,0,0,0,0],"split_type":[0,0,0,0,0,0,0,0,0,0,0,0,0],"sum_hessian":[2.3261293E1,1.3722452E1,9.53884E0,5.061904E0,8.660548E0,5.377799E0,3.282749E0,2.9149306E0,2.4628685E0,1.5258853E0,1.3890454E0,1.3221402E0,1.1407282E0],"tree_param":{"num_deleted":"0","num_feature":"3","num_nodes":"13","size_leaf_vector":"1"}},{"base_weights":[-6.58058E-2,4.8107597E-1,-2.66338E-1,2.5253016E-1,2.1544082E-1,-1.638403E-1,2.322593E-1,1.08661726E-1,-1.5922993E-1,-8.5906945E-2,1.8441175E-1],"categories":[],"categories_nodes":[],"categories_segments":[],"categories_sizes":[],"default_left":[0,0,0,0,0,0,0,0,0,0,0],"id":10,"left_children":[1,3,-1,-1,5,7,-1,9,-1,-1,-1],"loss_changes":[9.358763E0,1.0239255E0,0E0,0E0,1.9469376E0,6.5171504E-1,0E0,1.0234436E0,0E0,0E0,0E0],"parents":[2147483647,0,0,1,1,4,4,5,5,7,7],"right_children":[2,4,-1,-1,6,8,-1,10,-1,-1,-1],"split_conditions":[1E0,4.2549333E-1,-2.66338E-1,2.5253016E-1,6.0852724E-1,7.0768094E-1,2.322593E-1,3.4316736E-1,-1.5922993E-1,-8.5906945E-2,1.8441175E-1],"split_indices":[0,1,0,0,2,1,0,2,0,0,0],"split_type":[0,0,0,0,0,0,0,0,0,0,0],"sum_hessian":[1.8868902E1,1.1579567E1,7.2893357E0,3.9912229E0,7.588344E0,4.9411173E0,2.6472266E0,3.239284E0,1.7018331E0,2.0630183E0,1.1762656E0],"tree_param":{"num_deleted":"0","num_feature":"3","num_nodes":"11","size_leaf_vector":"1"}},{"base_weights":[-4.999318E-2,4.4320142E-1,-2.5648326E-1,1.21337265E-1,7.0987564E-1,4.971638E-1,-3.85708E-1,2.4206544E-1,8.616674E-2,-8.866229E-3,2.1507809E-1,-1.7126064E-1,-3.866137E-3],"categories":[],"categories_nodes":[],"categories_segments":[],"categories_sizes":[],"default_left":[0,0,0,0,0,0,0,0,0,0,0,0,0],"id":11,"left_children":[1,3,-1,5,7,9,11,-1,-1,-1,-1,-1,-1],"loss_changes":[6.929053E0,8.485317E-1,0E0,1.3618584E0,3.964424E-3,4.7995555E-1,2.1195409E-1,0E0,0E0,0E0,0E0,0E0,0E0],"parents":[2147483647,0,0,1,1,3,3,4,4,5,5,6,6],"right_children":[2,4,-1,6,8,10,12,-1,-1,-1,-1,-1,-1],"split_conditions":[1E0,4.5830065E-1,-2.5648326E-1,5.4001194E-1,8.3169705E-1,1.3171503E-1,3.6192E-1,2.4206544E-1,8.616674E-2,-8.866229E-3,2.1507809E-1,-1.7126064E-1,-3.866137E-3],"split_indices":[0,2,0,1,1,2,2,0,0,0,0,0,0],"split_type":[0,0,0,0,0,0,0,0,0,0,0,0,0],"sum_hessian":[1.54992E1,9.889373E0,5.6098275E0,5.14028E0,4.7490926E0,2.963325E0,2.176955E0,3.123158E0,1.6259345E0,1.1272069E0,1.8361182E0,1.0996175E0,1.0773375E0],"tree_param":{"num_deleted":"0","num_feature":"3","num_nodes":"13","size_leaf_vector":"1"}},{"base_weights":[-3.8436595E-2,3.928458E-1,-2.4536489E-1,1.470936E-1,2.2753124E-1,4.625402E-1,-1.2592326E-1,-2.0579226E-2,1.9546254E-1],"categories":[],"categories_nodes":[],"categories_segments":[],"categories_sizes":[],"default_left":[0,0,0,0,0,0,0,0,0],"id":12,"left_children":[1,3,-1,5,-1,7,-1,-1,-1],"loss_changes":[5.0686617E0,7.6597226E-1,0E0,1.4603742E0,0E0,5.491713E-1,0E0,0E0,0E0],"parents":[2147483647,0,0,1,1,3,3,5,5],"right_children":[2,4,-1,6,-1,8,-1,-1,-1],"split_conditions":[1E0,6.0852724E-1,-2.4536489E-1,6.6137064E-1,2.2753124E-1,1.3171503E-1,-1.2592326E-1,-2.0579226E-2,1.9546254E-1],"split_indices":[0,2,0,1,0,2,0,0,0],"split_type":[0,0,0,0,0,0,0,0,0],"sum_hessian":[1.3122259E1,8.767197E0,4.355062E0,6.0815187E0,2.6856782E0,4.0253825E0,2.0561364E0,1.2236631E0,2.8017194E0],"tree_param":{"num_deleted":"0","num_feature":"3","num_nodes":"9","size_leaf_vector":"1"}},{"base_weights":[-3.1178875E-2,3.469187E-1,-2.3309533E-1,2.1653932E-1,1.0374266E-1,-1.8093379E-1,1.878584E-1,3.5411596E-2,-1.2934361E-1,-1.03617616E-1,1.1967152E-1],"categories":[],"categories_nodes":[],"categories_segments":[],"categories_sizes":[],"default_left":[0,0,0,0,0,0,0,0,0,0,0],"id":13,"left_children":[1,3,-1,-1,5,7,-1,9,-1,-1,-1],"loss_changes":[3.7122645E0,7.266916E-1,0E0,0E0,1.0802131E0,2.850621E-1,0E0,6.356725E-1,0E0,0E0,0E0],"parents":[2147483647,0,0,1,1,4,4,5,5,7,7],"right_children":[2,4,-1,-1,6,8,-1,10,-1,-1,-1],"split_conditions":[1E0,4.2549333E-1,-2.3309533E-1,2.1653932E-1,6.0852724E-1,7.0768094E-1,1.878584E-1,2.7576756E-1,-1.2934361E-1,-1.03617616E-1,1.1967152E-1],"split_indices":[0,1,0,0,2,1,0,2,0,0,0],"split_type":[0,0,0,0,0,0,0,0,0,0,0],"sum_hessian":[1.1208757E1,7.7928786E0,3.4158792E0,2.291737E0,5.5011415E0,3.984001E0,1.5171405E0,2.5969887E0,1.3870124E0,1.2926153E0,1.3043733E0],"tree_param":{"num_deleted":"0","num_feature":"3","num_nodes":"11","size_leaf_vector":"1"}},{"base_weights":[-2.1557745E-2,3.1553844E-1,-2.1992314E-1,2.0133616E-1,9.3740664E-2,-2.741961E-1,4.344664E-1,5.1368494E-3,-1.2218697E-1,1.837709E-1,2.1677634E-2],"categories":[],"categories_nodes":[],"categories_segments":[],"categories_sizes":[],"default_left":[0,0,0,0,0,0,0,0,0,0,0],"id":14,"left_children":[1,3,-1,-1,5,7,9,-1,-1,-1,-1],"loss_changes":[2.7753425E0,5.598328E-1,0E0,0E0,8.7448174E-1,1.430665E-1,1.8250322E-1,0E0,0E0,0E0,0E0],"parents":[2147483647,0,0,1,1,4,4,5,5,6,6],"right_children":[2,4,-1,-1,6,8,10,-1,-1,-1,-1],"split_conditions":[1E0,4.2549333E-1,-2.1992314E-1,2.0133616E-1,4.1879332E-1,5.4001194E-1,8.3169705E-1,5.1368494E-3,-1.2218697E-1,1.837709E-1,2.1677634E-2],"split_indices":[0,1,0,0,2,1,1,0,0,0,0],"split_type":[0,0,0,0,0,0,0,0,0,0,0],"sum_hessian":[9.606729E0,6.8960967E0,2.7106316E0,1.8708931E0,5.0252037E0,2.510004E0,2.5151994E0,1.0603759E0,1.4496282E0,1.222745E0,1.2924545E0],"tree_param":{"num_deleted":"0","num_feature":"3","num_nodes":"11","size_leaf_vector":"1"}},{"base_weights":[-1.1264078E-2,2.8492066E-1,-2.0619766E-1,7.455895E-2,1.900367E-1,3.367241E-1,-1.014766E-1,-3.4766752E-2,1.5891099E-1],"categories":[],"categories_nodes":[],"categories_segments":[],"categories_sizes":[],"default_left":[0,0,0,0,0,0,0,0,0],"id":15,"left_children":[1,3,-1,5,-1,7,-1,-1,-1],"loss_changes":[2.0924437E0,4.8749685E-1,0E0,7.287864E-1,0E0,4.08665E-1,0E0,0E0,0E0],"parents":[2147483647,0,0,1,1,3,3,5,5],"right_children":[2,4,-1,6,-1,8,-1,-1,-1],"split_conditions":[1E0,6.0852724E-1,-2.0619766E-1,6.6137064E-1,1.900367E-1,1.366009E-1,-1.014766E-1,-3.4766752E-2,1.5891099E-1],"split_indices":[0,2,0,1,0,2,0,0,0],"split_type":[0,0,0,0,0,0,0,0,0],"sum_hessian":[8.471728E0,6.2932105E0,2.178518E0,4.681541E0,1.6116693E0,2.9759383E0,1.7056029E0,1.0089711E0,1.9669672E0],"tree_param":{"num_deleted":"0","num_feature":"3","num_nodes":"9","size_leaf_vector":"1"}},{"base_weights":[-8.664421E-3,2.5202104E-1,-1.9231232E-1,1.7857294E-1,5.3055532E-2,-1.0018598E-1,3.3110252E-1,1.560316E-1,-5.1998356E-3],"categories":[],"categories_nodes":[],"categories_segments":[],"categories_sizes":[],"default_left":[0,0,0,0,0,0,0,0,0],"id":16,"left_children":[1,3,-1,-1,5,-1,7,-1,-1],"loss_changes":[1.5690662E0,4.3030038E-1,0E0,0E0,6.8943447E-1,0E0,2.4823633E-1,0E0,0E0],"parents":[2147483647,0,0,1,1,4,4,6,6],"right_children":[2,4,-1,-1,6,-1,8,-1,-1],"split_conditions":[1E0,4.2549333E-1,-1.9231232E-1,1.7857294E-1,3.6192E-1,-1.0018598E-1,7.7985096E-1,1.560316E-1,-5.1998356E-3],"split_indices":[0,1,0,0,2,0,1,0,0],"split_type":[0,0,0,0,0,0,0,0,0],"sum_hessian":[7.5380554E0,5.7635922E0,1.7744633E0,1.3841676E0,4.3794246E0,1.7468904E0,2.632534E0,1.3873185E0,1.2452157E0],"tree_param":{"num_deleted":"0","num_feature":"3","num_nodes":"9","size_leaf_vector":"1"}},{"base_weights":[-2.4454677E-3,2.2813064E-1,-1.7864421E-1,3.5442837E-2,1.6978243E-1,1.04194134E-1,-2.5764108E-1,-9.268856E-3,-1.0711642E-1],"categories":[],"categories_nodes":[],"categories_segments":[],"categories_sizes":[],"default_left":[0,0,0,0,0,0,0,0,0],"id":17,"left_children":[1,3,-1,5,-1,-1,7,-1,-1],"loss_changes":[1.2046347E0,3.9334208E-1,0E0,5.566509E-1,0E0,0E0,6.130378E-2,0E0,0E0],"parents":[2147483647,0,0,1,1,3,3,6,6],"right_children":[2,4,-1,6,-1,-1,8,-1,-1],"split_conditions":[1E0,6.0852724E-1,-1.7864421E-1,5.5085737E-1,1.6978243E-1,1.04194134E-1,7.0768094E-1,-9.268856E-3,-1.0711642E-1],"split_indices":[0,2,0,1,0,0,1,0,0],"split_type":[0,0,0,0,0,0,0,0,0],"sum_hessian":[6.8162155E0,5.35102E0,1.4651959E0,4.1110115E0,1.2400085E0,1.9020287E0,2.2089827E0,1.0728307E0,1.136152E0],"tree_param":{"num_deleted":"0","num_feature":"3","num_nodes":"9","size_leaf_vector":"1"}},{"base_weights":[-5.442735E-3,1.97821E-1,-1.6550682E-1,-3.2172456E-2,1.3577206E-1,7.093764E-2,-9.150553E-2],"categories":[],"categories_nodes":[],"categories_segments":[],"categories_sizes":[],"default_left":[0,0,0,0,0,0,0],"id":18,"left_children":[1,3,-1,5,-1,-1,-1],"loss_changes":[9.1254437E-1,3.666694E-1,0E0,3.7203896E-1,0E0,0E0,0E0],"parents":[2147483647,0,0,1,1,3,3],"right_children":[2,4,-1,6,-1,-1,-1],"split_conditions":[1E0,4.5830065E-1,-1.6550682E-1,5.4001194E-1,1.3577206E-1,7.093764E-2,-9.150553E-2],"split_indices":[0,2,0,1,0,0,0],"split_type":[0,0,0,0,0,0,0],"sum_hessian":[6.2358212E0,5.0095663E0,1.2262547E0,3.091887E0,1.9176794E0,1.6251765E0,1.4667104E0],"tree_param":{"num_deleted":"0","num_feature":"3","num_nodes":"7","size_leaf_vector":"1"}},{"base_weights":[-1.2438922E-2,1.6554777E-1,-1.5312594E-1,-1.03059806E-1,3.4813315E-1,5.828027E-2,-1.0877616E-1,1.6607232E-1,-2.4362927E-2],"categories":[],"categories_nodes":[],"categories_segments":[],"categories_sizes":[],"default_left":[0,0,0,0,0,0,0,0,0],"id":19,"left_children":[1,3,-1,5,7,-1,-1,-1,-1],"loss_changes":[6.88664E-1,3.1918982E-1,0E0,3.1036326E-1,3.684415E-1,0E0,0E0,0E0,0E0],"parents":[2147483647,0,0,1,1,3,3,4,4],"right_children":[2,4,-1,6,8,-1,-1,-1,-1],"split_conditions":[1E0,3.6192E-1,-1.5312594E-1,4.7463086E-1,7.7985096E-1,5.828027E-2,-1.0877616E-1,1.6607232E-1,-2.4362927E-2],"split_indices":[0,2,0,1,1,0,0,0,0],"split_type":[0,0,0,0,0,0,0,0,0],"sum_hessian":[5.8164062E0,4.7766967E0,1.0397094E0,2.1092541E0,2.6674428E0,1.1002313E0,1.009023E0,1.6084461E0,1.0589966E0],"tree_param":{"num_deleted":"0","num_feature":"3","num_nodes":"9","size_leaf_vector":"1"}},{"base_weights":[-1.8854545E-2,-1.2625417E-1,7.2391614E-2,6.5739386E-2,-1.1671915E-1,-4.6079203E-2,8.911507E-2],"categories":[],"categories_nodes":[],"categories_segments":[],"categories_sizes":[],"default_left":[0,0,0,0,0,0,0],"id":20,"left_children":[1,3,-1,5,-1,-1,-1],"loss_changes":[2.094698E-1,2.8750485E-1,0E0,2.4121517E-1,0E0,0E0,0E0],"parents":[2147483647,0,0,1,1,3,3],"right_children":[2,4,-1,6,-1,-1,-1],"split_conditions":[6.0852724E-1,6.949511E-1,7.2391614E-2,2.7576756E-1,-1.1671915E-1,-4.6079203E-2,8.911507E-2],"split_indices":[2,1,0,2,0,0,0],"split_type":[0,0,0,0,0,0,0],"sum_hessian":[5.4064813E0,4.1910367E0,1.2154446E0,2.8551142E0,1.3359222E0,1.637937E0,1.2171773E0],"tree_param":{"num_deleted":"0","num_feature":"3","num_nodes":"7","size_leaf_vector":"1"}},{"base_weights":[-1.4163418E-2,6.535483E-2,-1.1243602E-1,-1.0063308E-1,1.01858884E-1,7.837557E-2,-3.4543104E-2],"categories":[],"categories_nodes":[],"categories_segments":[],"categories_sizes":[],"default_left":[0,0,0,0,0,0,0],"id":21,"left_children":[1,-1,3,-1,5,-1,-1],"loss_changes":[1.6662028E-1,0E0,2.7494752E-1,0E0,1.454846E-1,0E0,0E0],"parents":[2147483647,0,0,2,2,4,4],"right_children":[2,-1,4,-1,6,-1,-1],"split_conditions":[4.16154E-1,6.535483E-2,3.8040054E-1,-1.0063308E-1,7.7985096E-1,7.837557E-2,-3.4543104E-2],"split_indices":[1,0,2,0,1,0,0],"split_type":[0,0,0,0,0,0,0],"sum_hessian":[5.233465E0,1.195116E0,4.038349E0,1.701909E0,2.3364403E0,1.2294624E0,1.1069779E0],"tree_param":{"num_deleted":"0","num_feature":"3","num_nodes":"7","size_leaf_vector":"1"}},{"base_weights":[-9.03542E-3,-9.458323E-2,5.8944482E-2,3.6234353E-2,-2.7126446E-1,-9.97353E-2,-2.30316E-2],"categories":[],"categories_nodes":[],"categories_segments":[],"categories_sizes":[],"default_left":[0,0,0,0,0,0,0],"id":22,"left_children":[1,3,-1,-1,5,-1,-1],"loss_changes":[1.2593463E-1,2.2249764E-1,0E0,0E0,1.0740235E-2,0E0,0E0],"parents":[2147483647,0,0,1,1,4,4],"right_children":[2,4,-1,-1,6,-1,-1],"split_conditions":[6.448326E-1,5.5085737E-1,5.8944482E-2,3.6234353E-2,4.096289E-1,-9.97353E-2,-2.30316E-2],"split_indices":[2,1,0,0,2,0,0],"split_type":[0,0,0,0,0,0,0],"sum_hessian":[5.1058826E0,3.9863272E0,1.1195557E0,1.9390836E0,2.0472436E0,1.0177408E0,1.0295026E0],"tree_param":{"num_deleted":"0","num_feature":"3","num_nodes":"7","size_leaf_vector":"1"}},{"base_weights":[-1.1362482E-2,-5.647957E-2,6.832284E-2,1.6051024E-1,-3.7806895E-2,6.6586696E-2,9.232953E-3],"categories":[],"categories_nodes":[],"categories_segments":[],"categories_sizes":[],"default_left":[0,0,0,0,0,0,0],"id":23,"left_children":[1,-1,3,5,-1,-1,-1],"loss_changes":[9.764998E-2,0E0,1.07668996E-1,2.3063295E-2,0E0,0E0,0E0],"parents":[2147483647,0,0,2,2,3,3],"right_children":[2,-1,4,6,-1,-1,-1],"split_conditions":[1.8422484E-1,-5.647957E-2,7.7347314E-1,5.5085737E-1,-3.7806895E-2,6.6586696E-2,9.232953E-3],"split_indices":[2,0,1,1,0,0,0],"split_type":[0,0,0,0,0,0,0],"sum_hessian":[5.0147448E0,1.134198E0,3.8805468E0,2.7501302E0,1.1304166E0,1.3838472E0,1.3662829E0],"tree_param":{"num_deleted":"0","num_feature":"3","num_nodes":"7","size_leaf_vector":"1"}},{"base_weights":[-1.1063992E-2,-8.374993E-2,4.870941E-2,5.990738E-2,-9.2613414E-2,-3.238899E-2,5.881668E-2],"categories":[],"categories_nodes":[],"categories_segments":[],"categories_sizes":[],"default_left":[0,0,0,0,0,0,0],"id":24,"left_children":[1,3,-1,5,-1,-1,-1],"loss_changes":[8.885959E-2,1.7577738E-1,0E0,1.0819117E-1,0E0,0E0,0E0],"parents":[2147483647,0,0,1,1,3,3],"right_children":[2,4,-1,6,-1,-1,-1],"split_conditions":[6.5097344E-1,7.0768094E-1,4.870941E-2,2.3951016E-1,-9.2613414E-2,-3.238899E-2,5.881668E-2],"split_indices":[2,1,0,2,0,0,0],"split_type":[0,0,0,0,0,0,0],"sum_hessian":[4.9703784E0,3.8668365E0,1.1035421E0,2.8076248E0,1.0592116E0,1.3500413E0,1.4575837E0],"tree_param":{"num_deleted":"0","num_feature":"3","num_nodes":"7","size_leaf_vector":"1"}},{"base_weights":[-1.113842E-2,4.080657E-2,-7.658078E-2,-8.1091255E-2,9.8844424E-2,6.461815E-2,-2.2994833E-2],"categories":[],"categories_nodes":[],"categories_segments":[],"categories_sizes":[],"default_left":[0,0,0,0,0,0,0],"id":25,"left_children":[1,-1,3,-1,5,-1,-1],"loss_changes":[6.703194E-2,0E0,1.8674734E-1,0E0,8.2031794E-2,0E0,0E0],"parents":[2147483647,0,0,2,2,4,4],"right_children":[2,-1,4,-1,6,-1,-1],"split_conditions":[4.16154E-1,4.080657E-2,3.8040054E-1,-8.1091255E-2,7.7985096E-1,6.461815E-2,-2.2994833E-2],"split_indices":[1,0,2,0,1,0,0],"split_type":[0,0,0,0,0,0,0],"sum_hessian":[4.878736E0,1.1697711E0,3.7089648E0,1.5055372E0,2.2034278E0,1.1874545E0,1.0159732E0],"tree_param":{"num_deleted":"0","num_feature":"3","num_nodes":"7","size_leaf_vector":"1"}},{"base_weights":[-7.887215E-3,2.0100635E-1,-1.5087055E-1,1.7917851E-2,1.0421925E-1,7.081183E-2,-5.972394E-2],"categories":[],"categories_nodes":[],"categories_segments":[],"categories_sizes":[],"default_left":[0,0,0,0,0,0,0],"id":26,"left_children":[1,3,-1,5,-1,-1,-1],"loss_changes":[7.015429E-1,1.22374415E-1,0E0,1.9779895E-1,0E0,0E0,0E0],"parents":[2147483647,0,0,1,1,3,3],"right_children":[2,4,-1,6,-1,-1,-1],"split_conditions":[1E0,4.1879332E-1,-1.5087055E-1,4.7463086E-1,1.0421925E-1,7.081183E-2,-5.972394E-2],"split_indices":[0,2,0,1,0,0,0],"split_type":[0,0,0,0,0,0,0],"sum_hessian":[4.8068204E0,3.798016E0,1.0088043E0,2.1861894E0,1.6118268E0,1.046509E0,1.1396804E0],"tree_param":{"num_deleted":"0","num_feature":"3","num_nodes":"7","size_leaf_vector":"1"}},{"base_weights":[-1.3379868E-2,-7.491938E-2,3.8381837E-2,8.7353714E-2,-8.5390665E-2,-2.349136E-2,6.7725495E-2],"categories":[],"categories_nodes":[],"categories_segments":[],"categories_sizes":[],"default_left":[0,0,0,0,0,0,0],"id":27,"left_children":[1,3,-1,5,-1,-1,-1],"loss_changes":[5.7714656E-2,1.7752934E-1,0E0,9.320402E-2,0E0,0E0,0E0],"parents":[2147483647,0,0,1,1,3,3],"right_children":[2,4,-1,6,-1,-1,-1],"split_conditions":[6.1529803E-1,6.801408E-1,3.8381837E-2,2.3951016E-1,-8.5390665E-2,-2.349136E-2,6.7725495E-2],"split_indices":[2,1,0,2,0,0,0],"split_type":[0,0,0,0,0,0,0],"sum_hessian":[4.5342135E0,3.4860299E0,1.0481839E0,2.2942579E0,1.191772E0,1.2419215E0,1.0523362E0],"tree_param":{"num_deleted":"0","num_feature":"3","num_nodes":"7","size_leaf_vector":"1"}},{"base_weights":[-1.0240723E-2,3.405269E-2,-6.547459E-2,-7.578827E-2,6.719544E-2,4.8441608E-2,-1.27234515E-2],"categories":[],"categories_nodes":[],"categories_segments":[],"categories_sizes":[],"default_left":[0,0,0,0,0,0,0],"id":28,"left_children":[1,-1,3,-1,5,-1,-1],"loss_changes":[4.4723533E-2,0E0,1.2638363E-1,0E0,4.165519E-2,0E0,0E0],"parents":[2147483647,0,0,2,2,4,4],"right_children":[2,-1,4,-1,6,-1,-1],"split_conditions":[4.16154E-1,3.405269E-2,2.7576756E-1,-7.578827E-2,7.0768094E-1,4.8441608E-2,-1.27234515E-2],"split_indices":[1,0,2,0,1,0,0],"split_type":[0,0,0,0,0,0,0],"sum_hessian":[4.4558344E0,1.0494701E0,3.4063647E0,1.0379647E0,2.3683999E0,1.0188562E0,1.3495437E0],"tree_param":{"num_deleted":"0","num_feature":"3","num_nodes":"7","size_leaf_vector":"1"}},{"base_weights":[-8.517594E-3,-5.8310017E-2,3.0461492E-2,8.480792E-2,-7.1875684E-2,-3.8278627E-3,4.2539798E-2],"categories":[],"categories_nodes":[],"categories_segments":[],"categories_sizes":[],"default_left":[0,0,0,0,0,0,0],"id":29,"left_children":[1,3,-1,5,-1,-1,-1],"loss_changes":[3.554819E-2,1.3337195E-1,0E0,1.9456463E-2,0E0,0E0,0E0],"parents":[2147483647,0,0,1,1,3,3],"right_children":[2,4,-1,6,-1,-1,-1],"split_conditions":[6.1529803E-1,6.6137064E-1,3.0461492E-2,2.0888272E-1,-7.1875684E-2,-3.8278627E-3,4.2539798E-2],"split_indices":[2,1,0,2,0,0,0],"split_type":[0,0,0,0,0,0,0],"sum_hessian":[4.406526E0,3.357621E0,1.0489053E0,2.1736636E0,1.1839573E0,1.0876889E0,1.0859746E0],"tree_param":{"num_deleted":"0","num_feature":"3","num_nodes":"7","size_leaf_vector":"1"}},{"base_weights":[-6.7274314E-3,-4.9199216E-2,2.5858974E-2,2.944223E-2,-5.5118844E-2],"categories":[],"categories_nodes":[],"categories_segments":[],"categories_sizes":[],"default_left":[0,0,0,0,0],"id":30,"left_children":[1,3,-1,-1,-1],"loss_changes":[2.5383467E-2,1.0352805E-1,0E0,0E0,0E0],"parents":[2147483647,0,0,1,1],"right_children":[2,4,-1,-1,-1],"split_conditions":[6.1529803E-1,5.5085737E-1,2.5858974E-2,2.944223E-2,-5.5118844E-2],"split_indices":[2,1,0,0,0],"split_type":[0,0,0,0,0],"sum_hessian":[4.3571186E0,3.3132913E0,1.043827E0,1.7104589E0,1.6028326E0],"tree_param":{"num_deleted":"0","num_feature":"3","num_nodes":"5","size_leaf_vector":"1"}},{"base_weights":[-4.836107E-3,-2.2055054E-2,5.3078376E-2,3.0627852E-2,-4.768282E-3],"categories":[],"categories_nodes":[],"categories_segments":[],"categories_sizes":[],"default_left":[0,0,0,0,0],"id":31,"left_children":[1,-1,3,-1,-1],"loss_changes":[2.5063314E-2,0E0,1.3343364E-2,0E0,0E0],"parents":[2147483647,0,0,2,2],"right_children":[2,-1,4,-1,-1],"split_conditions":[3.8040054E-1,-2.2055054E-2,5.3338665E-1,3.0627852E-2,-4.768282E-3],"split_indices":[2,0,2,0,0],"split_type":[0,0,0,0,0],"sum_hessian":[4.3200693E0,1.8530891E0,2.4669805E0,1.1614318E0,1.3055485E0],"tree_param":{"num_deleted":"0","num_feature":"3","num_nodes":"5","size_leaf_vector":"1"}},{"base_weights":[-2.6793631E-3,-3.941521E-2,2.2665119E-2,7.085371E-2,-5.7369646E-2,-1.2997609E-2,4.8086364E-2],"categories":[],"categories_nodes":[],"categories_segments":[],"categories_sizes":[],"default_left":[0,0,0,0,0,0,0],"id":32,"left_children":[1,3,-1,5,-1,-1,-1],"loss_changes":[1.8249223E-2,8.5084E-2,0E0,3.967142E-2,0E0,0E0,0E0],"parents":[2147483647,0,0,1,1,3,3],"right_children":[2,4,-1,6,-1,-1,-1],"split_conditions":[6.1529803E-1,6.801408E-1,2.2665119E-2,2.3951016E-1,-5.7369646E-2,-1.2997609E-2,4.8086364E-2],"split_indices":[2,1,0,2,0,0,0],"split_type":[0,0,0,0,0,0,0],"sum_hessian":[4.313938E0,3.273091E0,1.0408472E0,2.204903E0,1.0681882E0,1.1949244E0,1.0099785E0],"tree_param":{"num_deleted":"0","num_feature":"3","num_nodes":"7","size_leaf_vector":"1"}},{"base_weights":[-1.9095931E-3,-1.7325448E-2,4.4606797E-2,2.8480696E-2,-6.5665217E-3],"categories":[],"categories_nodes":[],"categories_segments":[],"categories_sizes":[],"default_left":[0,0,0,0,0],"id":33,"left_children":[1,-1,3,-1,-1],"loss_changes":[1.6280193E-2,0E0,1.3598448E-2,0E0,0E0],"parents":[2147483647,0,0,2,2],"right_children":[2,-1,4,-1,-1],"split_conditions":[3.8040054E-1,-1.7325448E-2,5.3338665E-1,2.8480696E-2,-6.5665217E-3],"split_indices":[2,0,2,0,0],"split_type":[0,0,0,0,0],"sum_hessian":[4.2757444E0,1.8333356E0,2.4424088E0,1.1467505E0,1.2956583E0],"tree_param":{"num_deleted":"0","num_feature":"3","num_nodes":"5","size_leaf_vector":"1"}},{"base_weights":[-4.7137332E-4,2.0813202E-2,-3.407109E-2,-5.1210564E-2,2.5091907E-2],"categories":[],"categories_nodes":[],"categories_segments":[],"categories_sizes":[],"default_left":[0,0,0,0,0],"id":34,"left_children":[1,-1,3,-1,-1],"loss_changes":[1.47357825E-2,0E0,8.23095E-2,0E0,0E0],"parents":[2147483647,0,0,2,2],"right_children":[2,-1,4,-1,-1],"split_conditions":[4.0690795E-1,2.0813202E-2,3.8040054E-1,-5.1210564E-2,2.5091907E-2],"split_indices":[1,0,2,0,0],"split_type":[0,0,0,0,0],"sum_hessian":[4.27165E0,1.0415684E0,3.2300816E0,1.2865546E0,1.943527E0],"tree_param":{"num_deleted":"0","num_feature":"3","num_nodes":"5","size_leaf_vector":"1"}},{"base_weights":[-1.431667E-3,4.7610927E-2,-2.0920727E-2,3.7864283E-2,-2.0255258E-2],"categories":[],"categories_nodes":[],"categories_segments":[],"categories_sizes":[],"default_left":[0,0,0,0,0],"id":35,"left_children":[1,3,-1,-1,-1],"loss_changes":[2.0900426E-2,4.1543745E-2,0E0,0E0,0E0],"parents":[2147483647,0,0,1,1],"right_children":[2,4,-1,-1,-1],"split_conditions":[4.626756E-1,5.4001194E-1,-2.0920727E-2,3.7864283E-2,-2.0255258E-2],"split_indices":[2,1,0,0,0],"split_type":[0,0,0,0,0],"sum_hessian":[4.2481313E0,2.649056E0,1.5990757E0,1.5170246E0,1.1320312E0],"tree_param":{"num_deleted":"0","num_feature":"3","num_nodes":"5","size_leaf_vector":"1"}},{"base_weights":[-1.6276164E-3,3.8311813E-2,-1.708049E-2,-1.4625948E-2,3.3890553E-2],"categories":[],"categories_nodes":[],"categories_segments":[],"categories_sizes":[],"default_left":[0,0,0,0,0],"id":36,"left_children":[1,3,-1,-1,-1],"loss_changes":[1.37395E-2,2.9142283E-2,0E0,0E0,0E0],"parents":[2147483647,0,0,1,1],"right_children":[2,4,-1,-1,-1],"split_conditions":[4.626756E-1,2.7576756E-1,-1.708049E-2,-1.4625948E-2,3.3890553E-2],"split_indices":[2,2,0,0,0],"split_type":[0,0,0,0,0],"sum_hessian":[4.232464E0,2.6361196E0,1.5963445E0,1.3771037E0,1.2590158E0],"tree_param":{"num_deleted":"0","num_feature":"3","num_nodes":"5","size_leaf_vector":"1"}},{"base_weights":[-7.267756E-4,-3.7211176E-2,2.236063E-2,6.3853465E-2,-5.2747793E-2,1.5649503E-3,2.7371926E-2],"categories":[],"categories_nodes":[],"categories_segments":[],"categories_sizes":[],"default_left":[0,0,0,0,0,0,0],"id":37,"left_children":[1,3,-1,5,-1,-1,-1],"loss_changes":[1.713092E-2,6.990473E-2,0E0,4.5920564E-3,0E0,0E0,0E0],"parents":[2147483647,0,0,1,1,3,3],"right_children":[2,4,-1,6,-1,-1,-1],"split_conditions":[6.1529803E-1,6.801408E-1,2.236063E-2,2.0888272E-1,-5.2747793E-2,1.5649503E-3,2.7371926E-2],"split_indices":[2,1,0,2,0,0,0],"split_type":[0,0,0,0,0,0,0],"sum_hessian":[4.2286644E0,3.18855E0,1.0401144E0,2.1559694E0,1.0325805E0,1.0653721E0,1.0905973E0],"tree_param":{"num_deleted":"0","num_feature":"3","num_nodes":"7","size_leaf_vector":"1"}},{"base_weights":[-8.892067E-4,-4.3453313E-2,1.545059E-2,1.3815996E-2,-3.085009E-2],"categories":[],"categories_nodes":[],"categories_segments":[],"categories_sizes":[],"default_left":[0,0,0,0,0],"id":38,"left_children":[1,3,-1,-1,-1],"loss_changes":[1.3837754E-2,2.2872647E-2,0E0,0E0,0E0],"parents":[2147483647,0,0,1,1],"right_children":[2,4,-1,-1,-1],"split_conditions":[6.474747E-1,4.16154E-1,1.545059E-2,1.3815996E-2,-3.085009E-2],"split_indices":[1,1,0,0,0],"split_type":[0,0,0,0,0],"sum_hessian":[4.2017527E0,2.4124262E0,1.7893264E0,1.0516546E0,1.3607718E0],"tree_param":{"num_deleted":"0","num_feature":"3","num_nodes":"5","size_leaf_vector":"1"}},{"base_weights":[-9.533526E-4,3.8684726E-2,-1.68123E-2,3.1943128E-2,-1.804855E-2],"categories":[],"categories_nodes":[],"categories_segments":[],"categories_sizes":[],"default_left":[0,0,0,0,0],"id":39,"left_children":[1,3,-1,-1,-1],"loss_changes":[1.350732E-2,3.0607529E-2,0E0,0E0,0E0],"parents":[2147483647,0,0,1,1],"right_children":[2,4,-1,-1,-1],"split_conditions":[4.626756E-1,5.4001194E-1,-1.68123E-2,3.1943128E-2,-1.804855E-2],"split_indices":[2,1,0,0,0],"split_type":[0,0,0,0,0],"sum_hessian":[4.193054E0,2.6116285E0,1.5814257E0,1.5033699E0,1.1082586E0],"tree_param":{"num_deleted":"0","num_feature":"3","num_nodes":"5","size_leaf_vector":"1"}},{"base_weights":[-1.2281422E-3,-4.8765354E-2,1.7182024E-2,2.6294807E-2,-4.9277447E-2],"categories":[],"categories_nodes":[],"categories_segments":[],"categories_sizes":[],"default_left":[0,0,0,0,0],"id":40,"left_children":[1,3,-1,-1,-1],"loss_changes":[1.720291E-2,6.794476E-2,0E0,0E0,0E0],"parents":[2147483647,0,0,1,1],"right_children":[2,4,-1,-1,-1],"split_conditions":[4.5966488E-1,4.7463086E-1,1.7182024E-2,2.6294807E-2,-4.9277447E-2],"split_indices":[2,1,0,0,0],"split_type":[0,0,0,0,0],"sum_hessian":[4.1815715E0,2.398789E0,1.7827823E0,1.2103106E0,1.1884784E0],"tree_param":{"num_deleted":"0","num_feature":"3","num_nodes":"5","size_leaf_vector":"1"}},{"base_weights":[-2.0608352E-3,-5.132576E-2,1.7613987E-2,6.6000833E-3,-2.7766021E-2],"categories":[],"categories_nodes":[],"categories_segments":[],"categories_sizes":[],"default_left":[0,0,0,0,0],"id":41,"left_children":[1,3,-1,-1,-1],"loss_changes":[1.84667E-2,1.2266691E-2,0E0,0E0,0E0],"parents":[2147483647,0,0,1,1],"right_children":[2,4,-1,-1,-1],"split_conditions":[6.474747E-1,4.0690795E-1,1.7613987E-2,6.6000833E-3,-2.7766021E-2],"split_indices":[1,1,0,0,0],"split_type":[0,0,0,0,0],"sum_hessian":[4.161332E0,2.3841507E0,1.7771815E0,1.025897E0,1.3582537E0],"tree_param":{"num_deleted":"0","num_feature":"3","num_nodes":"5","size_leaf_vector":"1"}},{"base_weights":[-2.152116E-3,4.042515E-2,-1.8107424E-2,-1.485376E-2,3.1563498E-2],"categories":[],"categories_nodes":[],"categories_segments":[],"categories_sizes":[],"default_left":[0,0,0,0,0],"id":42,"left_children":[1,3,-1,-1,-1],"loss_changes":[1.5214399E-2,2.604495E-2,0E0,0E0,0E0],"parents":[2147483647,0,0,1,1],"right_children":[2,4,-1,-1,-1],"split_conditions":[4.626756E-1,2.3951016E-1,-1.8107424E-2,-1.485376E-2,3.1563498E-2],"split_indices":[2,2,0,0,0],"split_type":[0,0,0,0,0],"sum_hessian":[4.15461E0,2.5758638E0,1.5787463E0,1.1772896E0,1.3985744E0],"tree_param":{"num_deleted":"0","num_feature":"3","num_nodes":"5","size_leaf_vector":"1"}},{"base_weights":[-1.7849224E-3,-3.4506295E-2,1.9684972E-2,5.6112625E-2,-4.7479022E-2,-2.7328224E-3,2.7748412E-2],"categories":[],"categories_nodes":[],"categories_segments":[],"categories_sizes":[],"default_left":[0,0,0,0,0,0,0],"id":43,"left_children":[1,3,-1,5,-1,-1,-1],"loss_changes":[1.3624749E-2,5.5119026E-2,0E0,8.2423175E-3,0E0,0E0,0E0],"parents":[2147483647,0,0,1,1,3,3],"right_children":[2,4,-1,6,-1,-1,-1],"split_conditions":[6.1529803E-1,6.801408E-1,1.9684972E-2,4.5378953E-1,-4.7479022E-2,-2.7328224E-3,2.7748412E-2],"split_indices":[2,1,0,1,0,0,0],"split_type":[0,0,0,0,0,0,0],"sum_hessian":[4.1510863E0,3.1230092E0,1.0280772E0,2.1184227E0,1.0045863E0,1.0269791E0,1.0914437E0],"tree_param":{"num_deleted":"0","num_feature":"3","num_nodes":"7","size_leaf_vector":"1"}},{"base_weights":[-1.8737874E-3,-4.7971096E-2,1.660611E-2,5.9736418E-3,-2.5890194E-2],"categories":[],"categories_nodes":[],"categories_segments":[],"categories_sizes":[],"default_left":[0,0,0,0,0],"id":44,"left_children":[1,3,-1,-1,-1],"loss_changes":[1.618706E-2,1.0504454E-2,0E0,0E0,0E0],"parents":[2147483647,0,0,1,1],"right_children":[2,4,-1,-1,-1],"split_conditions":[6.474747E-1,4.0690795E-1,1.660611E-2,5.9736418E-3,-2.5890194E-2],"split_indices":[1,1,0,0,0],"split_type":[0,0,0,0,0],"sum_hessian":[4.12946E0,2.3767285E0,1.7527311E0,1.0311033E0,1.3456253E0],"tree_param":{"num_deleted":"0","num_feature":"3","num_nodes":"5","size_leaf_vector":"1"}},{"base_weights":[-1.9762272E-3,3.7821848E-2,-1.6934026E-2,2.7205383E-2,-1.3187107E-2],"categories":[],"categories_nodes":[],"categories_segments":[],"categories_sizes":[],"default_left":[0,0,0,0,0],"id":45,"left_children":[1,3,-1,-1,-1],"loss_changes":[1.3241986E-2,1.9373376E-2,0E0,0E0,0E0],"parents":[2147483647,0,0,1,1],"right_children":[2,4,-1,-1,-1],"split_conditions":[4.626756E-1,5.4001194E-1,-1.6934026E-2,2.7205383E-2,-1.3187107E-2],"split_indices":[2,1,0,0,0],"split_type":[0,0,0,0,0],"sum_hessian":[4.123606E0,2.5593216E0,1.5642844E0,1.4883412E0,1.0709804E0],"tree_param":{"num_deleted":"0","num_feature":"3","num_nodes":"5","size_leaf_vector":"1"}},{"base_weights":[-1.953846E-3,-5.342853E-2,1.5677625E-2,6.6000316E-3,-3.0995348E-2],"categories":[],"categories_nodes":[],"categories_segments":[],"categories_sizes":[],"default_left":[0,0,0,0,0],"id":46,"left_children":[1,3,-1,-1,-1],"loss_changes":[1.706715E-2,1.4007977E-2,0E0,0E0,0E0],"parents":[2147483647,0,0,1,1],"right_children":[2,4,-1,-1,-1],"split_conditions":[4.32816E-1,4.6147746E-1,1.5677625E-2,6.6000316E-3,-3.0995348E-2],"split_indices":[2,1,0,0,0],"split_type":[0,0,0,0,0],"sum_hessian":[4.1154456E0,2.1184485E0,1.9969972E0,1.0659057E0,1.0525427E0],"tree_param":{"num_deleted":"0","num_feature":"3","num_nodes":"5","size_leaf_vector":"1"}},{"base_weights":[-3.1030283E-3,-4.789927E-2,1.5879484E-2,2.69038E-3,-2.4791813E-2],"categories":[],"categories_nodes":[],"categories_segments":[],"categories_sizes":[],"default_left":[0,0,0,0,0],"id":47,"left_children":[1,3,-1,-1,-1],"loss_changes":[1.5354685E-2,7.385082E-3,0E0,0E0,0E0],"parents":[2147483647,0,0,1,1],"right_children":[2,4,-1,-1,-1],"split_conditions":[6.474747E-1,2.4660364E-1,1.5879484E-2,2.69038E-3,-2.4791813E-2],"split_indices":[1,2,0,0,0],"split_type":[0,0,0,0,0],"sum_hessian":[4.107003E0,2.3630638E0,1.7439393E0,1.1774743E0,1.1855894E0],"tree_param":{"num_deleted":"0","num_feature":"3","num_nodes":"5","size_leaf_vector":"1"}},{"base_weights":[-3.4067123E-3,-4.3274626E-2,1.3859765E-2,2.040839E-2,-4.1223943E-2],"categories":[],"categories_nodes":[],"categories_segments":[],"categories_sizes":[],"default_left":[0,0,0,0,0],"id":48,"left_children":[1,3,-1,-1,-1],"loss_changes":[1.2089438E-2,4.4396337E-2,0E0,0E0,0E0],"parents":[2147483647,0,0,1,1],"right_children":[2,4,-1,-1,-1],"split_conditions":[4.5966488E-1,4.7463086E-1,1.3859765E-2,2.040839E-2,-4.1223943E-2],"split_indices":[2,1,0,0,0],"split_type":[0,0,0,0,0],"sum_hessian":[4.102019E0,2.3449953E0,1.7570235E0,1.2016336E0,1.1433617E0],"tree_param":{"num_deleted":"0","num_feature":"3","num_nodes":"5","size_leaf_vector":"1"}},{"base_weights":[-3.806427E-3,4.011983E-2,-1.8853221E-2,-1.6052973E-2,3.232919E-2],"categories":[],"categories_nodes":[],"categories_segments":[],"categories_sizes":[],"default_left":[0,0,0,0,0],"id":49,"left_children":[1,3,-1,-1,-1],"loss_changes":[1.5716245E-2,2.810957E-2,0E0,0E0,0E0],"parents":[2147483647,0,0,1,1],"right_children":[2,4,-1,-1,-1],"split_conditions":[4.626756E-1,2.3951016E-1,-1.8853221E-2,-1.6052973E-2,3.232919E-2],"split_indices":[2,2,0,0,0],"split_type":[0,0,0,0,0],"sum_hessian":[4.0880885E0,2.5277686E0,1.5603197E0,1.1478794E0,1.3798892E0],"tree_param":{"num_deleted":"0","num_feature":"3","num_nodes":"5","size_leaf_vector":"1"}},{"base_weights":[-3.1798172E-3,-1.870132E-2,3.4657847E-2,-1.7544629E-2,3.1348888E-2],"categories":[],"categories_nodes":[],"categories_segments":[],"categories_sizes":[],"default_left":[0,0,0,0,0],"id":50,"left_children":[1,-1,3,-1,-1],"loss_changes":[1.3540709E-2,0E0,3.046162E-2,0E0,0E0],"parents":[2147483647,0,0,2,2],"right_children":[2,-1,4,-1,-1],"split_conditions":[4.5378953E-1,-1.870132E-2,4.32816E-1,-1.7544629E-2,3.1348888E-2],"split_indices":[1,0,2,0,0],"split_type":[0,0,0,0,0],"sum_hessian":[4.084092E0,1.3406018E0,2.7434905E0,1.2453029E0,1.4981875E0],"tree_param":{"num_deleted":"0","num_feature":"3","num_nodes":"5","size_leaf_vector":"1"}},{"base_weights":[-3.194876E-3,4.006576E-2,-1.8450832E-2,-9.618944E-3,2.8806483E-2],"categories":[],"categories_nodes":[],"categories_segments":[],"categories_sizes":[],"default_left":[0,0,0,0,0],"id":51,"left_children":[1,3,-1,-1,-1],"loss_changes":[1.5264105E-2,1.7280083E-2,0E0,0E0,0E0],"parents":[2147483647,0,0,1,1],"right_children":[2,4,-1,-1,-1],"split_conditions":[4.626756E-1,2.7576756E-1,-1.8450832E-2,-9.618944E-3,2.8806483E-2],"split_indices":[2,2,0,0,0],"split_type":[0,0,0,0,0],"sum_hessian":[4.0744386E0,2.5186353E0,1.5558034E0,1.2868438E0,1.2317915E0],"tree_param":{"num_deleted":"0","num_feature":"3","num_nodes":"5","size_leaf_vector":"1"}},{"base_weights":[-2.0976833E-3,-3.169356E-2,1.7649565E-2,6.287656E-2,-4.7621068E-2,-4.6460074E-3,3.306966E-2],"categories":[],"categories_nodes":[],"categories_segments":[],"categories_sizes":[],"default_left":[0,0,0,0,0,0,0],"id":52,"left_children":[1,3,-1,5,-1,-1,-1],"loss_changes":[1.1010353E-2,5.8802187E-2,0E0,1.3009778E-2,0E0,0E0,0E0],"parents":[2147483647,0,0,1,1,3,3],"right_children":[2,4,-1,6,-1,-1,-1],"split_conditions":[6.1529803E-1,6.6137064E-1,1.7649565E-2,4.5378953E-1,-4.7621068E-2,-4.6460074E-3,3.306966E-2],"split_indices":[2,1,0,1,0,0,0],"split_type":[0,0,0,0,0,0,0],"sum_hessian":[4.071783E0,3.0635362E0,1.0082468E0,2.045763E0,1.0177732E0,1.0240891E0,1.0216738E0],"tree_param":{"num_deleted":"0","num_feature":"3","num_nodes":"7","size_leaf_vector":"1"}},{"base_weights":[-1.8532589E-3,3.5621572E-2,-1.5831823E-2,-9.775991E-3,2.6989032E-2],"categories":[],"categories_nodes":[],"categories_segments":[],"categories_sizes":[],"default_left":[0,0,0,0,0],"id":53,"left_children":[1,3,-1,-1,-1],"loss_changes":[1.1516597E-2,1.5927434E-2,0E0,0E0,0E0],"parents":[2147483647,0,0,1,1],"right_children":[2,4,-1,-1,-1],"split_conditions":[4.626756E-1,2.7576756E-1,-1.5831823E-2,-9.775991E-3,2.6989032E-2],"split_indices":[2,2,0,0,0],"split_type":[0,0,0,0,0],"sum_hessian":[4.050181E0,2.5061681E0,1.5440127E0,1.2888209E0,1.2173473E0],"tree_param":{"num_deleted":"0","num_feature":"3","num_nodes":"5","size_leaf_vector":"1"}},{"base_weights":[-1.0292655E-3,-4.3844815E-2,1.538469E-2,2.0451501E-2,-4.223023E-2],"categories":[],"categories_nodes":[],"categories_segments":[],"categories_sizes":[],"default_left":[0,0,0,0,0],"id":54,"left_children":[1,3,-1,-1,-1],"loss_changes":[1.3555402E-2,4.5589447E-2,0E0,0E0,0E0],"parents":[2147483647,0,0,1,1],"right_children":[2,4,-1,-1,-1],"split_conditions":[4.5966488E-1,4.7463086E-1,1.538469E-2,2.0451501E-2,-4.223023E-2],"split_indices":[2,1,0,0,0],"split_type":[0,0,0,0,0],"sum_hessian":[4.048308E0,2.3152187E0,1.7330892E0,1.2115874E0,1.1036311E0],"tree_param":{"num_deleted":"0","num_feature":"3","num_nodes":"5","size_leaf_vector":"1"}},{"base_weights":[-2.04192E-3,3.5323948E-2,-1.5750697E-2,-1.0398581E-2,2.5069743E-2],"categories":[],"categories_nodes":[],"categories_segments":[],"categories_sizes":[],"default_left":[0,0,0,0,0],"id":55,"left_children":[1,3,-1,-1,-1],"loss_changes":[1.1346334E-2,1.4680064E-2,0E0,0E0,0E0],"parents":[2147483647,0,0,1,1],"right_children":[2,4,-1,-1,-1],"split_conditions":[4.626756E-1,2.3951016E-1,-1.5750697E-2,-1.0398581E-2,2.5069743E-2],"split_indices":[2,2,0,0,0],"split_type":[0,0,0,0,0],"sum_hessian":[4.034082E0,2.490119E0,1.5439631E0,1.1309352E0,1.3591838E0],"tree_param":{"num_deleted":"0","num_feature":"3","num_nodes":"5","size_leaf_vector":"1"}},{"base_weights":[-1.6489697E-3,-4.280484E-2,1.46284485E-2,1.72263E-2,-3.853297E-2],"categories":[],"categories_nodes":[],"categories_segments":[],"categories_sizes":[],"default_left":[0,0,0,0,0],"id":56,"left_children":[1,3,-1,-1,-1],"loss_changes":[1.2527802E-2,3.5725724E-2,0E0,0E0,0E0],"parents":[2147483647,0,0,1,1],"right_children":[2,4,-1,-1,-1],"split_conditions":[4.5966488E-1,4.7463086E-1,1.46284485E-2,1.72263E-2,-3.853297E-2],"split_indices":[2,1,0,0,0],"split_type":[0,0,0,0,0],"sum_hessian":[4.032362E0,2.3030174E0,1.7293446E0,1.2129503E0,1.090067E0],"tree_param":{"num_deleted":"0","num_feature":"3","num_nodes":"5","size_leaf_vector":"1"}},{"base_weights":[-2.5268537E-3,-1.888629E-2,3.6772914E-2,-1.3133447E-2,2.79713E-2],"categories":[],"categories_nodes":[],"categories_segments":[],"categories_sizes":[],"default_left":[0,0,0,0,0],"id":57,"left_children":[1,-1,3,-1,-1],"loss_changes":[1.42377205E-2,0E0,2.078925E-2,0E0,0E0],"parents":[2147483647,0,0,2,2],"right_children":[2,-1,4,-1,-1],"split_conditions":[4.5378953E-1,-1.888629E-2,4.32816E-1,-1.3133447E-2,2.79713E-2],"split_indices":[1,0,2,0,0],"split_type":[0,0,0,0,0],"sum_hessian":[4.0205426E0,1.3471937E0,2.6733491E0,1.1942897E0,1.4790595E0],"tree_param":{"num_deleted":"0","num_feature":"3","num_nodes":"5","size_leaf_vector":"1"}},{"base_weights":[-2.5788178E-3,4.0496815E-2,-1.8112242E-2,-6.1724163E-3,2.5337618E-2],"categories":[],"categories_nodes":[],"categories_segments":[],"categories_sizes":[],"default_left":[0,0,0,0,0],"id":58,"left_children":[1,3,-1,-1,-1],"loss_changes":[1.4925081E-2,1.1056114E-2,0E0,0E0,0E0],"parents":[2147483647,0,0,1,1],"right_children":[2,4,-1,-1,-1],"split_conditions":[4.626756E-1,2.7576756E-1,-1.8112242E-2,-6.1724163E-3,2.5337618E-2],"split_indices":[2,2,0,0,0],"split_type":[0,0,0,0,0],"sum_hessian":[4.0129623E0,2.4707701E0,1.5421921E0,1.2568089E0,1.2139612E0],"tree_param":{"num_deleted":"0","num_feature":"3","num_nodes":"5","size_leaf_vector":"1"}},{"base_weights":[-1.6015507E-3,3.386681E-2,-1.4830678E-2,-6.135657E-3,2.0508066E-2],"categories":[],"categories_nodes":[],"categories_segments":[],"categories_sizes":[],"default_left":[0,0,0,0,0],"id":59,"left_children":[1,3,-1,-1,-1],"loss_changes":[1.0175835E-2,7.901287E-3,0E0,0E0,0E0],"parents":[2147483647,0,0,1,1],"right_children":[2,4,-1,-1,-1],"split_conditions":[4.626756E-1,2.3951016E-1,-1.4830678E-2,-6.135657E-3,2.0508066E-2],"split_indices":[2,2,0,0,0],"split_type":[0,0,0,0,0],"sum_hessian":[4.010983E0,2.4708622E0,1.5401211E0,1.1177454E0,1.3531168E0],"tree_param":{"num_deleted":"0","num_feature":"3","num_nodes":"5","size_leaf_vector":"1"}},{"base_weights":[-1.2151414E-3,-3.1899676E-2,1.8225217E-2,1.7820455E-2,-3.67624E-2],"categories":[],"categories_nodes":[],"categories_segments":[],"categories_sizes":[],"default_left":[0,0,0,0,0],"id":60,"left_children":[1,3,-1,-1,-1],"loss_changes":[1.1464124E-2,4.043595E-2,0E0,0E0,0E0],"parents":[2147483647,0,0,1,1],"right_children":[2,4,-1,-1,-1],"split_conditions":[6.1529803E-1,5.5085737E-1,1.8225217E-2,1.7820455E-2,-3.67624E-2],"split_indices":[2,1,0,0,0],"split_type":[0,0,0,0,0],"sum_hessian":[4.010112E0,3.0065303E0,1.0035815E0,1.669519E0,1.3370113E0],"tree_param":{"num_deleted":"0","num_feature":"3","num_nodes":"5","size_leaf_vector":"1"}},{"base_weights":[-1.0394041E-3,-1.7428152E-2,3.6012113E-2,-1.0595902E-2,2.865979E-2],"categories":[],"categories_nodes":[],"categories_segments":[],"categories_sizes":[],"default_left":[0,0,0,0,0],"id":61,"left_children":[1,-1,3,-1,-1],"loss_changes":[1.2650868E-2,0E0,1.885219E-2,0E0,0E0],"parents":[2147483647,0,0,2,2],"right_children":[2,-1,4,-1,-1],"split_conditions":[4.5378953E-1,-1.7428152E-2,4.5966488E-1,-1.0595902E-2,2.865979E-2],"split_indices":[1,0,2,0,0],"split_type":[0,0,0,0,0],"sum_hessian":[3.9948058E0,1.3492377E0,2.6455681E0,1.388332E0,1.2572361E0],"tree_param":{"num_deleted":"0","num_feature":"3","num_nodes":"5","size_leaf_vector":"1"}},{"base_weights":[-5.9897493E-4,3.7928615E-2,-1.5905688E-2,-3.959372E-3,2.1832075E-2],"categories":[],"categories_nodes":[],"categories_segments":[],"categories_sizes":[],"default_left":[0,0,0,0,0],"id":62,"left_children":[1,3,-1,-1,-1],"loss_changes":[1.2086408E-2,7.1215876E-3,0E0,0E0,0E0],"parents":[2147483647,0,0,1,1],"right_children":[2,4,-1,-1,-1],"split_conditions":[4.626756E-1,2.7576756E-1,-1.5905688E-2,-3.959372E-3,2.1832075E-2],"split_indices":[2,2,0,0,0],"split_type":[0,0,0,0,0],"sum_hessian":[3.9888072E0,2.4583898E0,1.5304176E0,1.2481996E0,1.21019E0],"tree_param":{"num_deleted":"0","num_feature":"3","num_nodes":"5","size_leaf_vector":"1"}},{"base_weights":[-2.8930242E-5,-3.4753405E-2,1.2625821E-2,1.6418736E-2,-3.433763E-2],"categories":[],"categories_nodes":[],"categories_segments":[],"categories_sizes":[],"default_left":[0,0,0,0,0],"id":63,"left_children":[1,3,-1,-1,-1],"loss_changes":[8.756772E-3,2.9668184E-2,0E0,0E0,0E0],"parents":[2147483647,0,0,1,1],"right_children":[2,4,-1,-1,-1],"split_conditions":[4.5966488E-1,4.7463086E-1,1.2625821E-2,1.6418736E-2,-3.433763E-2],"split_indices":[2,1,0,0,0],"split_type":[0,0,0,0,0],"sum_hessian":[3.9877129E0,2.2814329E0,1.7062799E0,1.2224201E0,1.0590129E0],"tree_param":{"num_deleted":"0","num_feature":"3","num_nodes":"5","size_leaf_vector":"1"}},{"base_weights":[-1.1122776E-3,-1.6437547E-2,3.3975884E-2,2.6609333E-2,-1.2972703E-2],"categories":[],"categories_nodes":[],"categories_segments":[],"categories_sizes":[],"default_left":[0,0,0,0,0],"id":64,"left_children":[1,-1,3,-1,-1],"loss_changes":[1.1237935E-2,0E0,1.9164037E-2,0E0,0E0],"parents":[2147483647,0,0,2,2],"right_children":[2,-1,4,-1,-1],"split_conditions":[4.5378953E-1,-1.6437547E-2,7.0768094E-1,2.6609333E-2,-1.2972703E-2],"split_indices":[1,0,1,0,0],"split_type":[0,0,0,0,0],"sum_hessian":[3.9781008E0,1.3504978E0,2.627603E0,1.4508042E0,1.1767987E0],"tree_param":{"num_deleted":"0","num_feature":"3","num_nodes":"5","size_leaf_vector":"1"}},{"base_weights":[-1.3444073E-3,3.3361692E-2,-1.4476457E-2,-5.6821047E-3,1.9820953E-2],"categories":[],"categories_nodes":[],"categories_segments":[],"categories_sizes":[],"default_left":[0,0,0,0,0],"id":65,"left_children":[1,3,-1,-1,-1],"loss_changes":[9.706391E-3,7.1525984E-3,0E0,0E0,0E0],"parents":[2147483647,0,0,1,1],"right_children":[2,4,-1,-1,-1],"split_conditions":[4.6409515E-1,2.3951016E-1,-1.4476457E-2,-5.6821047E-3,1.9820953E-2],"split_indices":[2,2,0,0,0],"split_type":[0,0,0,0,0],"sum_hessian":[3.9730563E0,2.4495842E0,1.523472E0,1.1044459E0,1.3451382E0],"tree_param":{"num_deleted":"0","num_feature":"3","num_nodes":"5","size_leaf_vector":"1"}},{"base_weights":[-1.0121092E-3,-3.8394716E-2,1.3361906E-2,1.4320551E-2,-3.393762E-2],"categories":[],"categories_nodes":[],"categories_segments":[],"categories_sizes":[],"default_left":[0,0,0,0,0],"id":66,"left_children":[1,3,-1,-1,-1],"loss_changes":[1.0177119E-2,2.64352E-2,0E0,0E0,0E0],"parents":[2147483647,0,0,1,1],"right_children":[2,4,-1,-1,-1],"split_conditions":[4.5966488E-1,4.7463086E-1,1.3361906E-2,1.4320551E-2,-3.393762E-2],"split_indices":[2,1,0,0,0],"split_type":[0,0,0,0,0],"sum_hessian":[3.9722853E0,2.2680793E0,1.704206E0,1.2214966E0,1.0465826E0],"tree_param":{"num_deleted":"0","num_feature":"3","num_nodes":"5","size_leaf_vector":"1"}},{"base_weights":[-1.9972876E-3,-1.562536E-2,3.115974E-2,2.3544874E-2,-1.0974356E-2],"categories":[],"categories_nodes":[],"categories_segments":[],"categories_sizes":[],"default_left":[0,0,0,0,0],"id":67,"left_children":[1,-1,3,-1,-1],"loss_changes":[9.865294E-3,0E0,1.444972E-2,0E0,0E0],"parents":[2147483647,0,0,2,2],"right_children":[2,-1,4,-1,-1],"split_conditions":[4.5378953E-1,-1.562536E-2,7.0768094E-1,2.3544874E-2,-1.0974356E-2],"split_indices":[1,0,1,0,0],"split_type":[0,0,0,0,0],"sum_hessian":[3.963049E0,1.3511491E0,2.6118999E0,1.4443299E0,1.1675699E0],"tree_param":{"num_deleted":"0","num_feature":"3","num_nodes":"5","size_leaf_vector":"1"}},{"base_weights":[-2.0164738E-3,-3.7147857E-2,1.2841273E-2,1.7053992E-2,-3.7952874E-2],"categories":[],"categories_nodes":[],"categories_segments":[],"categories_sizes":[],"default_left":[0,0,0,0,0],"id":68,"left_children":[1,3,-1,-1,-1],"loss_changes":[9.398786E-3,3.5039634E-2,0E0,0E0,0E0],"parents":[2147483647,0,0,1,1],"right_children":[2,4,-1,-1,-1],"split_conditions":[6.474747E-1,2.7875987E-1,1.2841273E-2,1.7053992E-2,-3.7952874E-2],"split_indices":[1,2,0,0,0],"split_type":[0,0,0,0,0],"sum_hessian":[3.9591224E0,2.3154309E0,1.6436915E0,1.3057969E0,1.009634E0],"tree_param":{"num_deleted":"0","num_feature":"3","num_nodes":"5","size_leaf_vector":"1"}},{"base_weights":[-3.076722E-3,-4.1357752E-2,1.3251198E-2,1.1911709E-2,-3.2673325E-2],"categories":[],"categories_nodes":[],"categories_segments":[],"categories_sizes":[],"default_left":[0,0,0,0,0],"id":69,"left_children":[1,3,-1,-1,-1],"loss_changes":[1.0777991E-2,2.2123765E-2,0E0,0E0,0E0],"parents":[2147483647,0,0,1,1],"right_children":[2,4,-1,-1,-1],"split_conditions":[4.5966488E-1,4.7463086E-1,1.3251198E-2,1.1911709E-2,-3.2673325E-2],"split_indices":[2,1,0,0,0],"split_type":[0,0,0,0,0],"sum_hessian":[3.9490237E0,2.250371E0,1.6986527E0,1.2102785E0,1.0400925E0],"tree_param":{"num_deleted":"0","num_feature":"3","num_nodes":"5","size_leaf_vector":"1"}},{"base_weights":[-3.7029586E-3,-3.02792E-2,1.5116832E-2,1.3238084E-2,-3.0937383E-2],"categories":[],"categories_nodes":[],"categories_segments":[],"categories_sizes":[],"default_left":[0,0,0,0,0],"id":70,"left_children":[1,3,-1,-1,-1],"loss_changes":[8.628037E-3,2.58923E-2,0E0,0E0,0E0],"parents":[2147483647,0,0,1,1],"right_children":[2,4,-1,-1,-1],"split_conditions":[6.0852724E-1,5.5085737E-1,1.5116832E-2,1.3238084E-2,-3.0937383E-2],"split_indices":[2,1,0,0,0],"split_type":[0,0,0,0,0],"sum_hessian":[3.9404705E0,2.9374824E0,1.0029883E0,1.6482036E0,1.2892786E0],"tree_param":{"num_deleted":"0","num_feature":"3","num_nodes":"5","size_leaf_vector":"1"}},{"base_weights":[-3.148085E-3,-4.2453166E-2,1.4220333E-2,1.2619009E-2,-3.5343252E-2],"categories":[],"categories_nodes":[],"categories_segments":[],"categories_sizes":[],"default_left":[0,0,0,0,0],"id":71,"left_children":[1,3,-1,-1,-1],"loss_changes":[1.1806495E-2,2.5977738E-2,0E0,0E0,0E0],"parents":[2147483647,0,0,1,1],"right_children":[2,4,-1,-1,-1],"split_conditions":[6.474747E-1,2.7875987E-1,1.4220333E-2,1.2619009E-2,-3.5343252E-2],"split_indices":[1,2,0,0,0],"split_type":[0,0,0,0,0],"sum_hessian":[3.92952E0,2.3007264E0,1.6287937E0,1.2927144E0,1.0080119E0],"tree_param":{"num_deleted":"0","num_feature":"3","num_nodes":"5","size_leaf_vector":"1"}},{"base_weights":[-3.9635263E-3,-1.4071687E-2,3.1408247E-2,2.2015413E-2,-6.556111E-3],"categories":[],"categories_nodes":[],"categories_segments":[],"categories_sizes":[],"default_left":[0,0,0,0,0],"id":72,"left_children":[1,-1,3,-1,-1],"loss_changes":[8.948061E-3,0E0,8.975757E-3,0E0,0E0],"parents":[2147483647,0,0,2,2],"right_children":[2,-1,4,-1,-1],"split_conditions":[3.8040054E-1,-1.4071687E-2,5.3338665E-1,2.2015413E-2,-6.556111E-3],"split_indices":[2,0,2,0,0],"split_type":[0,0,0,0,0],"sum_hessian":[3.9210942E0,1.6237507E0,2.2973435E0,1.0734978E0,1.2238457E0],"tree_param":{"num_deleted":"0","num_feature":"3","num_nodes":"5","size_leaf_vector":"1"}},{"base_weights":[-2.4968386E-3,-3.571356E-2,1.1502633E-2,9.119418E-3,-2.7019236E-2],"categories":[],"categories_nodes":[],"categories_segments":[],"categories_sizes":[],"default_left":[0,0,0,0,0],"id":73,"left_children":[1,3,-1,-1,-1],"loss_changes":[8.040908E-3,1.4343444E-2,0E0,0E0,0E0],"parents":[2147483647,0,0,1,1],"right_children":[2,4,-1,-1,-1],"split_conditions":[4.5966488E-1,4.7463086E-1,1.1502633E-2,9.119418E-3,-2.7019236E-2],"split_indices":[2,1,0,0,0],"split_type":[0,0,0,0,0],"sum_hessian":[3.9180965E0,2.2298944E0,1.688202E0,1.2049301E0,1.0249643E0],"tree_param":{"num_deleted":"0","num_feature":"3","num_nodes":"5","size_leaf_vector":"1"}},{"base_weights":[-3.0679693E-3,3.2932173E-2,-1.5755776E-2,-9.766439E-3,2.4810594E-2],"categories":[],"categories_nodes":[],"categories_segments":[],"categories_sizes":[],"default_left":[0,0,0,0,0],"id":74,"left_children":[1,3,-1,-1,-1],"loss_changes":[1.0474248E-2,1.3960429E-2,0E0,0E0,0E0],"parents":[2147483647,0,0,1,1],"right_children":[2,4,-1,-1,-1],"split_conditions":[4.9421245E-1,2.7576756E-1,-1.5755776E-2,-9.766439E-3,2.4810594E-2],"split_indices":[2,2,0,0,0],"split_type":[0,0,0,0,0],"sum_hessian":[3.9120395E0,2.457238E0,1.4548016E0,1.2104387E0,1.2467993E0],"tree_param":{"num_deleted":"0","num_feature":"3","num_nodes":"5","size_leaf_vector":"1"}},{"base_weights":[-2.2956368E-3,-3.4745455E-2,1.1265104E-2,8.06479E-3,-2.551307E-2],"categories":[],"categories_nodes":[],"categories_segments":[],"categories_sizes":[],"default_left":[0,0,0,0,0],"id":75,"left_children":[1,3,-1,-1,-1],"loss_changes":[7.653357E-3,1.2284759E-2,0E0,0E0,0E0],"parents":[2147483647,0,0,1,1],"right_children":[2,4,-1,-1,-1],"split_conditions":[4.5966488E-1,4.7463086E-1,1.1265104E-2,8.06479E-3,-2.551307E-2],"split_indices":[2,1,0,0,0],"split_type":[0,0,0,0,0],"sum_hessian":[3.9100373E0,2.225576E0,1.6844614E0,1.2093482E0,1.0162277E0],"tree_param":{"num_deleted":"0","num_feature":"3","num_nodes":"5","size_leaf_vector":"1"}},{"base_weights":[-2.883374E-3,3.2567024E-2,-1.4840654E-2,-9.406023E-3,2.2718385E-2],"categories":[],"categories_nodes":[],"categories_segments":[],"categories_sizes":[],"default_left":[0,0,0,0,0],"id":76,"left_children":[1,3,-1,-1,-1],"loss_changes":[9.7108325E-3,1.1721811E-2,0E0,0E0,0E0],"parents":[2147483647,0,0,1,1],"right_children":[2,4,-1,-1,-1],"split_conditions":[4.626756E-1,2.3951016E-1,-1.4840654E-2,-9.406023E-3,2.2718385E-2],"split_indices":[2,2,0,0,0],"split_type":[0,0,0,0,0],"sum_hessian":[3.9045773E0,2.3881629E0,1.5164144E0,1.0728556E0,1.3153073E0],"tree_param":{"num_deleted":"0","num_feature":"3","num_nodes":"5","size_leaf_vector":"1"}},{"base_weights":[-2.3343845E-3,-1.4089121E-2,2.7693193E-2,2.4235042E-2,-1.3571406E-2],"categories":[],"categories_nodes":[],"categories_segments":[],"categories_sizes":[],"default_left":[0,0,0,0,0],"id":77,"left_children":[1,-1,3,-1,-1],"loss_changes":[7.87123E-3,0E0,1.7438887E-2,0E0,0E0],"parents":[2147483647,0,0,2,2],"right_children":[2,-1,4,-1,-1],"split_conditions":[4.5378953E-1,-1.4089121E-2,7.0768094E-1,2.4235042E-2,-1.3571406E-2],"split_indices":[1,0,1,0,0],"split_type":[0,0,0,0,0],"sum_hessian":[3.903067E0,1.3429899E0,2.5600774E0,1.4192601E0,1.1408172E0],"tree_param":{"num_deleted":"0","num_feature":"3","num_nodes":"5","size_leaf_vector":"1"}},{"base_weights":[-2.3347116E-3,-3.234469E-2,1.7190518E-2,1.1480326E-2,-3.0234277E-2],"categories":[],"categories_nodes":[],"categories_segments":[],"categories_sizes":[],"default_left":[0,0,0,0,0],"id":78,"left_children":[1,3,-1,-1,-1],"loss_changes":[1.0620668E-2,2.2693807E-2,0E0,0E0,0E0],"parents":[2147483647,0,0,1,1],"right_children":[2,4,-1,-1,-1],"split_conditions":[6.0852724E-1,5.5085737E-1,1.7190518E-2,1.1480326E-2,-3.0234277E-2],"split_indices":[2,1,0,0,0],"split_type":[0,0,0,0,0],"sum_hessian":[3.898764E0,2.8980536E0,1.0007101E0,1.643312E0,1.2547418E0],"tree_param":{"num_deleted":"0","num_feature":"3","num_nodes":"5","size_leaf_vector":"1"}},{"base_weights":[-1.9815438E-3,-3.8570363E-2,1.3493038E-2,1.2618021E-2,-3.3215355E-2],"categories":[],"categories_nodes":[],"categories_segments":[],"categories_sizes":[],"default_left":[0,0,0,0,0],"id":79,"left_children":[1,3,-1,-1,-1],"loss_changes":[1.013359E-2,2.3771478E-2,0E0,0E0,0E0],"parents":[2147483647,0,0,1,1],"right_children":[2,4,-1,-1,-1],"split_conditions":[6.474747E-1,2.7875987E-1,1.3493038E-2,1.2618021E-2,-3.3215355E-2],"split_indices":[1,2,0,0,0],"split_type":[0,0,0,0,0],"sum_hessian":[3.8882918E0,2.2858431E0,1.6024488E0,1.2763966E0,1.0094464E0],"tree_param":{"num_deleted":"0","num_feature":"3","num_nodes":"5","size_leaf_vector":"1"}},{"base_weights":[-2.8682782E-3,-4.0458266E-2,1.2978719E-2,5.0926176E-3,-2.5034647E-2],"categories":[],"categories_nodes":[],"categories_segments":[],"categories_sizes":[],"default_left":[0,0,0,0,0],"id":80,"left_children":[1,3,-1,-1,-1],"loss_changes":[1.021361E-2,9.3325665E-3,0E0,0E0,0E0],"parents":[2147483647,0,0,1,1],"right_children":[2,4,-1,-1,-1],"split_conditions":[4.5966488E-1,4.7463086E-1,1.2978719E-2,5.0926176E-3,-2.5034647E-2],"split_indices":[2,1,0,0,0],"split_type":[0,0,0,0,0],"sum_hessian":[3.880644E0,2.206016E0,1.674628E0,1.203425E0,1.0025909E0],"tree_param":{"num_deleted":"0","num_feature":"3","num_nodes":"5","size_leaf_vector":"1"}},{"base_weights":[-3.4495802E-3,-3.495662E-2,1.1285655E-2,1.0916091E-2,-2.9510861E-2],"categories":[],"categories_nodes":[],"categories_segments":[],"categories_sizes":[],"default_left":[0,0,0,0,0],"id":81,"left_children":[1,3,-1,-1,-1],"loss_changes":[7.6235738E-3,1.840583E-2,0E0,0E0,0E0],"parents":[2147483647,0,0,1,1],"right_children":[2,4,-1,-1,-1],"split_conditions":[6.474747E-1,2.7875987E-1,1.1285655E-2,1.0916091E-2,-2.9510861E-2],"split_indices":[1,2,0,0,0],"split_type":[0,0,0,0,0],"sum_hessian":[3.875437E0,2.2772148E0,1.5982224E0,1.2721521E0,1.0050627E0],"tree_param":{"num_deleted":"0","num_feature":"3","num_nodes":"5","size_leaf_vector":"1"}},{"base_weights":[-3.935973E-3,-1.4136553E-2,3.1527173E-2,2.2311665E-2,-8.658687E-3],"categories":[],"categories_nodes":[],"categories_segments":[],"categories_sizes":[],"default_left":[0,0,0,0,0],"id":82,"left_children":[1,-1,3,-1,-1],"loss_changes":[8.943354E-3,0E0,1.0615043E-2,0E0,0E0],"parents":[2147483647,0,0,2,2],"right_children":[2,-1,4,-1,-1],"split_conditions":[3.8040054E-1,-1.4136553E-2,7.0768094E-1,2.2311665E-2,-8.658687E-3],"split_indices":[2,0,1,0,0],"split_type":[0,0,0,0,0],"sum_hessian":[3.869541E0,1.596554E0,2.272987E0,1.1941909E0,1.0787961E0],"tree_param":{"num_deleted":"0","num_feature":"3","num_nodes":"5","size_leaf_vector":"1"}},{"base_weights":[-2.8558036E-3,2.8806677E-2,-1.380372E-2,-1.0326413E-2,2.3463646E-2],"categories":[],"categories_nodes":[],"categories_segments":[],"categories_sizes":[],"default_left":[0,0,0,0,0],"id":83,"left_children":[1,3,-1,-1,-1],"loss_changes":[7.972747E-3,1.3378659E-2,0E0,0E0,0E0],"parents":[2147483647,0,0,1,1],"right_children":[2,4,-1,-1,-1],"split_conditions":[4.9421245E-1,2.7576756E-1,-1.380372E-2,-1.0326413E-2,2.3463646E-2],"split_indices":[2,2,0,0,0],"split_type":[0,0,0,0,0],"sum_hessian":[3.8646548E0,2.420977E0,1.4436779E0,1.1949693E0,1.2260078E0],"tree_param":{"num_deleted":"0","num_feature":"3","num_nodes":"5","size_leaf_vector":"1"}},{"base_weights":[-2.1399846E-3,-3.680583E-2,1.2036708E-2,-5.2384834E-4,-1.6523601E-2],"categories":[],"categories_nodes":[],"categories_segments":[],"categories_sizes":[],"default_left":[0,0,0,0,0],"id":84,"left_children":[1,3,-1,-1,-1],"loss_changes":[8.601292E-3,1.9494826E-3,0E0,0E0,0E0],"parents":[2147483647,0,0,1,1],"right_children":[2,4,-1,-1,-1],"split_conditions":[4.5966488E-1,2.4660364E-1,1.2036708E-2,-5.2384834E-4,-1.6523601E-2],"split_indices":[2,2,0,0,0],"split_type":[0,0,0,0,0],"sum_hessian":[3.8629785E0,2.1931498E0,1.6698287E0,1.1267813E0,1.0663685E0],"tree_param":{"num_deleted":"0","num_feature":"3","num_nodes":"5","size_leaf_vector":"1"}},{"base_weights":[-2.5339383E-3,2.9734991E-2,-1.3416911E-2,-8.414291E-3,2.238609E-2],"categories":[],"categories_nodes":[],"categories_segments":[],"categories_sizes":[],"default_left":[0,0,0,0,0],"id":85,"left_children":[1,3,-1,-1,-1],"loss_changes":[7.9466E-3,1.079327E-2,0E0,0E0,0E0],"parents":[2147483647,0,0,1,1],"right_children":[2,4,-1,-1,-1],"split_conditions":[4.626756E-1,2.7576756E-1,-1.3416911E-2,-8.414291E-3,2.238609E-2],"split_indices":[2,2,0,0,0],"split_type":[0,0,0,0,0],"sum_hessian":[3.8602734E0,2.3545554E0,1.5057179E0,1.1933875E0,1.161168E0],"tree_param":{"num_deleted":"0","num_feature":"3","num_nodes":"5","size_leaf_vector":"1"}},{"base_weights":[-1.661853E-3,-3.4972355E-2,1.1652352E-2,9.605504E-3,-2.4043659E-2],"categories":[],"categories_nodes":[],"categories_segments":[],"categories_sizes":[],"default_left":[0,0,0,0,0],"id":86,"left_children":[1,3,-1,-1,-1],"loss_changes":[7.913908E-3,1.2226905E-2,0E0,0E0,0E0],"parents":[2147483647,0,0,1,1],"right_children":[2,4,-1,-1,-1],"split_conditions":[4.5966488E-1,4.581869E-1,1.1652352E-2,9.605504E-3,-2.4043659E-2],"split_indices":[2,1,0,0,0],"split_type":[0,0,0,0,0],"sum_hessian":[3.8589215E0,2.1923985E0,1.666523E0,1.0002544E0,1.192144E0],"tree_param":{"num_deleted":"0","num_feature":"3","num_nodes":"5","size_leaf_vector":"1"}},{"base_weights":[-1.7501801E-3,3.0140817E-2,-1.3099672E-2,-9.0537295E-3,2.198897E-2],"categories":[],"categories_nodes":[],"categories_segments":[],"categories_sizes":[],"default_left":[0,0,0,0,0],"id":87,"left_children":[1,3,-1,-1,-1],"loss_changes":[7.80402E-3,1.0927435E-2,0E0,0E0,0E0],"parents":[2147483647,0,0,1,1],"right_children":[2,4,-1,-1,-1],"split_conditions":[4.626756E-1,4.652056E-1,-1.3099672E-2,-9.0537295E-3,2.198897E-2],"split_indices":[2,1,0,0,0],"split_type":[0,0,0,0,0],"sum_hessian":[3.853586E0,2.3480237E0,1.5055624E0,1.1046788E0,1.2433449E0],"tree_param":{"num_deleted":"0","num_feature":"3","num_nodes":"5","size_leaf_vector":"1"}},{"base_weights":[-1.2618793E-3,-3.3385158E-2,1.130425E-2,9.522722E-3,-2.3292426E-2],"categories":[],"categories_nodes":[],"categories_segments":[],"categories_sizes":[],"default_left":[0,0,0,0,0],"id":88,"left_children":[1,3,-1,-1,-1],"loss_changes":[7.3285545E-3,1.1657358E-2,0E0,0E0,0E0],"parents":[2147483647,0,0,1,1],"right_children":[2,4,-1,-1,-1],"split_conditions":[4.5966488E-1,4.581869E-1,1.130425E-2,9.522722E-3,-2.3292426E-2],"split_indices":[2,1,0,0,0],"split_type":[0,0,0,0,0],"sum_hessian":[3.8527036E0,2.1894057E0,1.6632979E0,1.0002282E0,1.1891775E0],"tree_param":{"num_deleted":"0","num_feature":"3","num_nodes":"5","size_leaf_vector":"1"}},{"base_weights":[-1.4031054E-3,2.6441365E-2,-1.5015903E-2,-1.201169E-2,2.4068918E-2],"categories":[],"categories_nodes":[],"categories_segments":[],"categories_sizes":[],"default_left":[0,0,0,0,0],"id":89,"left_children":[1,3,-1,-1,-1],"loss_changes":[7.8901425E-3,1.657662E-2,0E0,0E0,0E0],"parents":[2147483647,0,0,1,1],"right_children":[2,4,-1,-1,-1],"split_conditions":[7.0768094E-1,4.5378953E-1,-1.5015903E-2,-1.201169E-2,2.4068918E-2],"split_indices":[1,1,0,0,0],"split_type":[0,0,0,0,0],"sum_hessian":[3.8475733E0,2.7373595E0,1.1102138E0,1.3385651E0,1.3987944E0],"tree_param":{"num_deleted":"0","num_feature":"3","num_nodes":"5","size_leaf_vector":"1"}},{"base_weights":[-1.5942325E-3,2.7438316E-2,-1.1884623E-2,-7.850538E-3,1.9670028E-2],"categories":[],"categories_nodes":[],"categories_segments":[],"categories_sizes":[],"default_left":[0,0,0,0,0],"id":90,"left_children":[1,3,-1,-1,-1],"loss_changes":[6.433414E-3,8.536728E-3,0E0,0E0,0E0],"parents":[2147483647,0,0,1,1],"right_children":[2,4,-1,-1,-1],"split_conditions":[4.626756E-1,4.652056E-1,-1.1884623E-2,-7.850538E-3,1.9670028E-2],"split_indices":[2,1,0,0,0],"split_type":[0,0,0,0,0],"sum_hessian":[3.8434346E0,2.3371522E0,1.5062823E0,1.1017791E0,1.2353731E0],"tree_param":{"num_deleted":"0","num_feature":"3","num_nodes":"5","size_leaf_vector":"1"}},{"base_weights":[-1.1316924E-3,-3.5095863E-2,1.1957597E-2,1.3381607E-3,-1.766329E-2],"categories":[],"categories_nodes":[],"categories_segments":[],"categories_sizes":[],"default_left":[0,0,0,0,0],"id":91,"left_children":[1,3,-1,-1,-1],"loss_changes":[8.141272E-3,3.2543493E-3,0E0,0E0,0E0],"parents":[2147483647,0,0,1,1],"right_children":[2,4,-1,-1,-1],"split_conditions":[4.5966488E-1,2.4660364E-1,1.1957597E-2,1.3381607E-3,-1.766329E-2],"split_indices":[2,2,0,0,0],"split_type":[0,0,0,0,0],"sum_hessian":[3.8429701E0,2.1802442E0,1.6627258E0,1.1236718E0,1.0565726E0],"tree_param":{"num_deleted":"0","num_feature":"3","num_nodes":"5","size_leaf_vector":"1"}},{"base_weights":[-1.7005034E-3,2.7348109E-2,-1.1897885E-2,-7.861963E-3,1.9173738E-2],"categories":[],"categories_nodes":[],"categories_segments":[],"categories_sizes":[],"default_left":[0,0,0,0,0],"id":92,"left_children":[1,3,-1,-1,-1],"loss_changes":[6.421381E-3,8.202782E-3,0E0,0E0,0E0],"parents":[2147483647,0,0,1,1],"right_children":[2,4,-1,-1,-1],"split_conditions":[4.626756E-1,2.3951016E-1,-1.1897885E-2,-7.861963E-3,1.9173738E-2],"split_indices":[2,2,0,0,0],"split_type":[0,0,0,0,0],"sum_hessian":[3.8399034E0,2.3336163E0,1.506287E0,1.0617625E0,1.2718538E0],"tree_param":{"num_deleted":"0","num_feature":"3","num_nodes":"5","size_leaf_vector":"1"}},{"base_weights":[-1.3134938E-3,-3.3828385E-2,1.1412954E-2,2.139798E-3,-1.78941E-2],"categories":[],"categories_nodes":[],"categories_segments":[],"categories_sizes":[],"default_left":[0,0,0,0,0],"id":93,"left_children":[1,3,-1,-1,-1],"loss_changes":[7.479308E-3,3.7875737E-3,0E0,0E0,0E0],"parents":[2147483647,0,0,1,1],"right_children":[2,4,-1,-1,-1],"split_conditions":[4.5966488E-1,2.4660364E-1,1.1412954E-2,2.139798E-3,-1.78941E-2],"split_indices":[2,2,0,0,0],"split_type":[0,0,0,0,0],"sum_hessian":[3.8390055E0,2.179148E0,1.6598576E0,1.1223259E0,1.0568221E0],"tree_param":{"num_deleted":"0","num_feature":"3","num_nodes":"5","size_leaf_vector":"1"}},{"base_weights":[-1.8232466E-3,2.4297813E-2,-1.4191023E-2,-7.192593E-3,2.0911317E-2],"categories":[],"categories_nodes":[],"categories_segments":[],"categories_sizes":[],"default_left":[0,0,0,0,0],"id":94,"left_children":[1,3,-1,-1,-1],"loss_changes":[6.894354E-3,9.852171E-3,0E0,0E0,0E0],"parents":[2147483647,0,0,1,1],"right_children":[2,4,-1,-1,-1],"split_conditions":[7.0768094E-1,4.6147746E-1,-1.4191023E-2,-7.192593E-3,2.0911317E-2],"split_indices":[1,1,0,0,0],"split_type":[0,0,0,0,0],"sum_hessian":[3.835886E0,2.7323425E0,1.1035435E0,1.553139E0,1.1792036E0],"tree_param":{"num_deleted":"0","num_feature":"3","num_nodes":"5","size_leaf_vector":"1"}},{"base_weights":[-1.3751402E-3,-3.0112013E-2,1.62911E-2,1.34836305E-2,-3.1762514E-2],"categories":[],"categories_nodes":[],"categories_segments":[],"categories_sizes":[],"default_left":[0,0,0,0,0],"id":95,"left_children":[1,3,-1,-1,-1],"loss_changes":[9.368457E-3,2.6544774E-2,0E0,0E0,0E0],"parents":[2147483647,0,0,1,1],"right_children":[2,4,-1,-1,-1],"split_conditions":[6.0852724E-1,5.5085737E-1,1.62911E-2,1.34836305E-2,-3.1762514E-2],"split_indices":[2,1,0,0,0],"split_type":[0,0,0,0,0],"sum_hessian":[3.833185E0,2.831156E0,1.002029E0,1.6265335E0,1.2046226E0],"tree_param":{"num_deleted":"0","num_feature":"3","num_nodes":"5","size_leaf_vector":"1"}},{"base_weights":[-1.4030085E-3,-2.5947418E-2,1.3855578E-2,1.09822415E-2,-2.6678652E-2],"categories":[],"categories_nodes":[],"categories_segments":[],"categories_sizes":[],"default_left":[0,0,0,0,0],"id":96,"left_children":[1,3,-1,-1,-1],"loss_changes":[6.831201E-3,1.8312752E-2,0E0,0E0,0E0],"parents":[2147483647,0,0,1,1],"right_children":[2,4,-1,-1,-1],"split_conditions":[6.0852724E-1,5.5085737E-1,1.3855578E-2,1.09822415E-2,-2.6678652E-2],"split_indices":[2,1,0,0,0],"split_type":[0,0,0,0,0],"sum_hessian":[3.8225067E0,2.8218462E0,1.0006604E0,1.6258072E0,1.196039E0],"tree_param":{"num_deleted":"0","num_feature":"3","num_nodes":"5","size_leaf_vector":"1"}},{"base_weights":[-1.3826188E-3,-3.6422443E-2,1.3198674E-2,1.1816834E-2,-3.103221E-2],"categories":[],"categories_nodes":[],"categories_segments":[],"categories_sizes":[],"default_left":[0,0,0,0,0],"id":97,"left_children":[1,3,-1,-1,-1],"loss_changes":[9.257729E-3,2.065722E-2,0E0,0E0,0E0],"parents":[2147483647,0,0,1,1],"right_children":[2,4,-1,-1,-1],"split_conditions":[6.474747E-1,2.7875987E-1,1.3198674E-2,1.1816834E-2,-3.103221E-2],"split_indices":[1,2,0,0,0],"split_type":[0,0,0,0,0],"sum_hessian":[3.8145223E0,2.2638197E0,1.5507027E0,1.2556596E0,1.0081601E0],"tree_param":{"num_deleted":"0","num_feature":"3","num_nodes":"5","size_leaf_vector":"1"}},{"base_weights":[-2.2396576E-3,-1.2740232E-2,3.0422235E-2,2.0052837E-2,-5.0070425E-3],"categories":[],"categories_nodes":[],"categories_segments":[],"categories_sizes":[],"default_left":[0,0,0,0,0],"id":98,"left_children":[1,-1,3,-1,-1],"loss_changes":[7.608886E-3,0E0,6.6681392E-3,0E0,0E0],"parents":[2147483647,0,0,2,2],"right_children":[2,-1,4,-1,-1],"split_conditions":[3.8040054E-1,-1.2740232E-2,5.3338665E-1,2.0052837E-2,-5.0070425E-3],"split_indices":[2,0,2,0,0],"split_type":[0,0,0,0,0],"sum_hessian":[3.8077157E0,1.5717131E0,2.2360024E0,1.024901E0,1.2111015E0],"tree_param":{"num_deleted":"0","num_feature":"3","num_nodes":"5","size_leaf_vector":"1"}},{"base_weights":[-1.0886055E-3,2.7667247E-2,-1.1647071E-2,-9.359869E-3,2.0727206E-2],"categories":[],"categories_nodes":[],"categories_segments":[],"categories_sizes":[],"default_left":[0,0,0,0,0],"id":99,"left_children":[1,3,-1,-1,-1],"loss_changes":[6.2883706E-3,1.0229363E-2,0E0,0E0,0E0],"parents":[2147483647,0,0,1,1],"right_children":[2,4,-1,-1,-1],"split_conditions":[4.626756E-1,2.3951016E-1,-1.1647071E-2,-9.359869E-3,2.0727206E-2],"split_indices":[2,2,0,0,0],"split_type":[0,0,0,0,0],"sum_hessian":[3.805294E0,2.311001E0,1.494293E0,1.0564686E0,1.2545326E0],"tree_param":{"num_deleted":"0","num_feature":"3","num_nodes":"5","size_leaf_vector":"1"}}]},"name":"gbtree"},"learner_model_param":{"base_score":"[1.75E-1]","boost_from_average":"1","num_class":"0","num_feature":"3","num_target":"1"},"objective":{"name":"binary:logistic","reg_loss_param":{"scale_pos_weight":"1"}}},"version":[3,2,0]}